{
  "inputLayer": {
    "Values": [
      0.0,
      0.0,
      0.0,
      0.0,
      0.0,
      0.0,
      0.0,
      0.0,
      0.0,
      0.0,
      0.0,
      0.0,
      0.0,
      0.0,
      0.0,
      0.0,
      0.0,
      0.0,
      0.0,
      0.0,
      0.0,
      0.0,
      0.0,
      0.0,
      0.0,
      0.0,
      0.0,
      0.0,
      0.0,
      0.0,
      0.0,
      0.0,
      0.0,
      0.0,
      0.0,
      0.0,
      0.0,
      0.0,
      0.0,
      0.0,
      0.0,
      0.0,
      0.0,
      0.0,
      0.0,
      0.0,
      0.0,
      0.0,
      0.0,
      0.0,
      0.0
    ],
    "Storage": {
      "Data": [
        0.0,
        0.0,
        0.0,
        0.0,
        0.0,
        0.0,
        0.0,
        0.0,
        0.0,
        0.0,
        0.0,
        0.0,
        0.0,
        0.0,
        0.0,
        0.0,
        0.0,
        0.0,
        0.0,
        0.0,
        0.0,
        0.0,
        0.0,
        0.0,
        0.0,
        0.0,
        0.0,
        0.0,
        0.0,
        0.0,
        0.0,
        0.0,
        0.0,
        0.0,
        0.0,
        0.0,
        0.0,
        0.0,
        0.0,
        0.0,
        0.0,
        0.0,
        0.0,
        0.0,
        0.0,
        0.0,
        0.0,
        0.0,
        0.0,
        0.0,
        0.0
      ],
      "RowCount": 1,
      "ColumnCount": 51
    },
    "ColumnCount": 51,
    "RowCount": 1
  },
  "hiddenLayers": [
    {
      "Values": [
        0.0,
        0.0,
        0.0,
        0.0,
        0.0,
        0.0,
        0.0,
        0.0,
        0.0,
        0.0,
        0.0,
        0.0,
        0.0,
        0.0,
        0.0,
        0.0
      ],
      "Storage": {
        "Data": [
          0.0,
          0.0,
          0.0,
          0.0,
          0.0,
          0.0,
          0.0,
          0.0,
          0.0,
          0.0,
          0.0,
          0.0,
          0.0,
          0.0,
          0.0,
          0.0
        ],
        "RowCount": 1,
        "ColumnCount": 16
      },
      "ColumnCount": 16,
      "RowCount": 1
    },
    {
      "Values": [
        0.0,
        0.0,
        0.0,
        0.0,
        0.0,
        0.0,
        0.0,
        0.0,
        0.0,
        0.0
      ],
      "Storage": {
        "Data": [
          0.0,
          0.0,
          0.0,
          0.0,
          0.0,
          0.0,
          0.0,
          0.0,
          0.0,
          0.0
        ],
        "RowCount": 1,
        "ColumnCount": 10
      },
      "ColumnCount": 10,
      "RowCount": 1
    }
  ],
  "outputLayer": {
    "Values": [
      0.0,
      0.0
    ],
    "Storage": {
      "Data": [
        0.0,
        0.0
      ],
      "RowCount": 1,
      "ColumnCount": 2
    },
    "ColumnCount": 2,
    "RowCount": 1
  },
  "weights": [
    {
      "Values": [
        -0.822439253,
        0.642645836,
        0.7387694,
        -0.403322756,
        -0.157384336,
        -0.7248266,
        0.656169057,
        -0.8905462,
        0.174750209,
        -0.398359,
        0.04404366,
        -0.5977346,
        -0.935140133,
        -0.439308763,
        0.159100533,
        -0.054087162,
        -0.6845891,
        0.996935844,
        -0.8843092,
        -0.4222949,
        -0.8494557,
        0.648700833,
        -0.162353337,
        -0.4387598,
        0.805149555,
        -0.122887433,
        0.6758015,
        -0.706075251,
        0.246127248,
        0.6023855,
        0.376338482,
        -0.8953913,
        0.227368236,
        -0.8237201,
        -0.488472879,
        -0.782423139,
        -0.6209025,
        -0.110436022,
        0.732666969,
        -0.215218782,
        0.9683862,
        0.7728541,
        -0.9991464,
        -0.314111173,
        -0.2469151,
        0.5509689,
        0.8021723,
        -0.24386245,
        -0.497553766,
        0.9771639,
        0.5045594,
        -0.741165,
        -0.179802716,
        -0.347825646,
        0.832261562,
        -0.123164892,
        0.126279354,
        -0.620725632,
        -0.155049264,
        0.9126501,
        0.0331341028,
        0.777806759,
        -0.388537,
        0.283320546,
        -0.9221195,
        -0.542060733,
        -0.7629095,
        0.92567873,
        -0.406348467,
        -0.15060997,
        0.574409962,
        -0.7366758,
        0.363766551,
        0.352546215,
        0.6805941,
        -0.0137290955,
        0.384255648,
        0.30003202,
        0.726531148,
        0.758535862,
        -0.189435661,
        0.286499739,
        -0.7135992,
        -0.6812538,
        0.729390144,
        0.4269936,
        -0.6018369,
        0.9667921,
        0.21556437,
        0.7150172,
        -0.3606425,
        -0.187522769,
        -0.2216121,
        -0.5960527,
        -0.105061054,
        -0.787502468,
        -0.525622,
        0.793343663,
        0.2573856,
        -0.857362151,
        0.5004412,
        -0.362459719,
        -0.9930947,
        0.0126049519,
        -0.586928368,
        0.878062963,
        0.8205285,
        0.431294441,
        0.1253773,
        0.4935627,
        0.16295135,
        -0.05845833,
        -0.676545739,
        0.008597374,
        -0.828781664,
        0.152783632,
        -0.6510012,
        -0.6160811,
        -0.428664625,
        -0.7523112,
        -0.5919386,
        -0.8344856,
        -0.103788018,
        -0.306363881,
        -0.932813048,
        0.5912509,
        -0.7539942,
        -0.6660229,
        -0.9452272,
        -0.5883291,
        0.746688366,
        0.100209475,
        -0.544390738,
        0.8936554,
        0.9959973,
        0.300760865,
        0.04921949,
        0.5559882,
        -0.250929058,
        -0.246462345,
        -0.9466769,
        -0.91806066,
        0.319332719,
        -0.39828974,
        0.676948547,
        -0.710014,
        0.959259033,
        0.7159015,
        -0.117776394,
        -0.5425116,
        -0.358002961,
        0.0414242744,
        -0.012149632,
        0.0552608967,
        0.278707743,
        0.7505088,
        0.7129133,
        -0.8043399,
        -0.281653464,
        0.07579231,
        0.566978931,
        -0.740386,
        0.688248038,
        0.38987112,
        0.2434876,
        0.716682434,
        -0.460947454,
        -0.7317803,
        0.44801712,
        0.711356163,
        0.983348846,
        -0.328087449,
        0.294251323,
        -0.581084967,
        -0.569947243,
        0.939427733,
        0.05515623,
        0.9767735,
        -0.4187622,
        -0.530062556,
        0.3508798,
        -0.105830669,
        -0.3831432,
        0.632710457,
        -0.3666023,
        -0.2089417,
        -0.7543118,
        0.8544097,
        0.29787612,
        -0.0713413954,
        0.128524184,
        -0.9178957,
        0.250078678,
        0.515247345,
        0.9954308,
        -0.963254333,
        -0.358112931,
        -0.1683129,
        -0.7148377,
        0.561957955,
        0.189199448,
        -0.914255559,
        -0.2152394,
        0.4527123,
        0.8885884,
        -0.0304068923,
        -0.158149183,
        0.474853754,
        0.422795653,
        -0.24559176,
        -0.529832363,
        0.443487048,
        -0.977516353,
        0.0176115036,
        -0.682387948,
        -0.6316489,
        -0.9557613,
        -0.8682025,
        -0.185517013,
        -0.591935933,
        0.899027944,
        -0.231971025,
        0.911720753,
        0.8671763,
        0.588528156,
        0.0728685856,
        -0.8435738,
        -0.8176969,
        0.7423856,
        -0.393284738,
        -0.0409203768,
        0.335369,
        -0.5297774,
        0.763028145,
        0.04692185,
        -0.590392,
        -0.09469372,
        0.417617321,
        -0.225844324,
        -0.965382755,
        0.651969552,
        -0.5128664,
        0.8855473,
        0.274287462,
        0.247362018,
        -0.844687939,
        0.7898811,
        0.516530156,
        0.39152503,
        0.285800338,
        -0.9857414,
        0.246904612,
        -0.370402873,
        0.287554383,
        -0.40823555,
        0.24551785,
        0.8852527,
        -0.3288532,
        -0.5903661,
        0.559888,
        -0.6085489,
        0.82635653,
        0.6046009,
        -0.514005661,
        -0.896412849,
        -0.235426784,
        0.7121022,
        -0.3250293,
        0.3504995,
        -0.222945511,
        0.39851737,
        -0.015576601,
        -0.6557985,
        -0.6604327,
        0.0063174963,
        -0.3944981,
        0.8048632,
        0.78054297,
        -0.295271575,
        0.285676122,
        0.623954654,
        0.8658408,
        -0.057272315,
        0.1154871,
        -0.384135544,
        -0.479457736,
        -0.2878682,
        -0.840004444,
        0.48924768,
        0.732126,
        -0.112458587,
        0.907599449,
        0.952792168,
        0.246780992,
        0.5217215,
        -0.608557045,
        -0.112229824,
        -0.5319458,
        -0.232909977,
        0.519328237,
        -0.8086551,
        -0.4016739,
        0.824787855,
        0.267971635,
        0.439853668,
        0.45901072,
        0.44764626,
        -0.291414678,
        0.4383558,
        -0.246014237,
        -0.76649785,
        -0.781024933,
        -0.9211822,
        -0.192462146,
        0.8612757,
        0.987663865,
        -0.3788752,
        0.5330732,
        -0.3232566,
        0.7065921,
        0.53669095,
        0.7394427,
        -0.755189657,
        -0.959297061,
        -0.460422039,
        0.362630367,
        -0.36047,
        0.81006825,
        -0.733164668,
        -0.130024612,
        -0.891156554,
        -0.5307379,
        0.7683915,
        -0.1743443,
        0.4596194,
        -0.879722357,
        0.0314077139,
        0.46989727,
        -0.5418969,
        0.6012213,
        0.9950144,
        0.46701932,
        -0.4476726,
        0.9798075,
        0.167653084,
        -0.8830286,
        -0.482027829,
        -0.273276746,
        0.452019334,
        -0.890674233,
        -0.7366319,
        0.0464280844,
        -0.0857149959,
        -0.721190453,
        -0.1490286,
        -0.06234747,
        -0.9995731,
        -0.490766764,
        -0.0713717341,
        0.143902421,
        -0.4647926,
        -0.257917,
        0.8597002,
        0.7908901,
        0.929953337,
        -0.210381866,
        0.3084309,
        0.19350481,
        0.402368665,
        -0.348138273,
        -0.9432757,
        -0.506794,
        -0.052842617,
        0.4763466,
        -0.53360033,
        0.4930489,
        0.8020613,
        -0.468218982,
        0.141779184,
        0.6221348,
        0.035326004,
        0.372736454,
        0.5857737,
        -0.225365877,
        -0.841769,
        0.570971966,
        -0.668055058,
        -0.891131163,
        0.22342813,
        0.353150249,
        -0.651185751,
        -0.02557081,
        0.239035487,
        -0.260963321,
        0.199995637,
        -0.6621562,
        -0.6913876,
        0.8337581,
        -0.0482403636,
        -0.0621913075,
        0.199328661,
        0.467217684,
        -0.371250451,
        -0.354613543,
        -0.572875,
        0.5033587,
        0.33877635,
        -0.617270231,
        -0.6137905,
        0.9431579,
        -0.8584613,
        0.850362539,
        -0.4838072,
        -0.935154855,
        0.167087078,
        -0.313539565,
        0.869598746,
        -0.0990514755,
        0.638839841,
        0.9528227,
        -0.18379277,
        -0.5093513,
        -0.3012597,
        0.227116585,
        0.7790139,
        -0.903706431,
        -0.439931929,
        0.815952063,
        0.0536903143,
        -0.08346641,
        0.7663547,
        -0.8458817,
        -0.5406399,
        -0.421356678,
        -0.7170067,
        0.4101907,
        0.4167521,
        0.7339922,
        0.150884151,
        0.92380023,
        0.239866734,
        -0.4292624,
        0.599591255,
        -0.2942105,
        -0.130804718,
        0.677046061,
        0.333516955,
        -0.761217,
        0.310648561,
        -0.532488,
        -0.899033248,
        0.375457764,
        0.567489743,
        -0.244592965,
        -0.23141247,
        -0.826160848,
        0.8269819,
        0.7825414,
        0.59118104,
        -0.933419466,
        -0.511932731,
        0.4303795,
        0.302223444,
        0.06699717,
        0.8596004,
        0.952103853,
        0.6409534,
        -0.9570094,
        -0.101721585,
        -0.634802938,
        -0.6096006,
        0.5290694,
        0.646908641,
        0.867719769,
        0.261174083,
        -0.28600955,
        -0.433876574,
        -0.0888353,
        -0.8533228,
        -0.5381458,
        0.6603068,
        -0.0006392598,
        -0.186526716,
        -0.08172095,
        0.0819159746,
        -0.45142895,
        -0.5193293,
        -0.352114618,
        0.8615837,
        0.68278,
        -0.400269032,
        -0.165126681,
        0.433621645,
        0.482126,
        -0.5678344,
        0.5970472,
        -0.502691269,
        0.548980951,
        -0.6989647,
        -0.5317848,
        -0.023170352,
        -0.574119568,
        0.9104829,
        0.432419181,
        -0.170479417,
        -0.9417113,
        -0.23563391,
        0.20324266,
        -0.858106256,
        -0.2544014,
        -0.151506484,
        -0.526567,
        0.5767964,
        0.334291816,
        0.5946984,
        -0.01355058,
        0.380262733,
        0.125188,
        -0.6525989,
        -0.320092559,
        0.411629081,
        0.9276782,
        0.5785532,
        0.257521749,
        -0.5449164,
        0.769696951,
        -0.12189585,
        0.351562142,
        0.7665938,
        -0.1100142,
        -0.3074805,
        -0.02974093,
        -0.2989605,
        0.9121258,
        -0.983049452,
        0.838981032,
        -0.4158737,
        0.44971776,
        -0.3035416,
        -0.2954198,
        0.776047349,
        -0.6884272,
        0.22040844,
        0.6040473,
        -0.14599973,
        -0.221868634,
        -0.835650444,
        0.325847149,
        -0.379451454,
        -0.661701739,
        0.478486657,
        -0.413397133,
        -0.245884657,
        -0.0251134634,
        -0.996604562,
        -0.444503844,
        -0.613851845,
        0.011416316,
        0.6760762,
        -0.132833362,
        0.773031235,
        0.875031,
        -0.4541214,
        0.5083754,
        0.448084,
        0.57946825,
        0.6776427,
        0.8789462,
        0.7997099,
        -0.72854507,
        0.418708563,
        0.6144688,
        0.8714191,
        0.3705784,
        -0.05811107,
        0.08335817,
        0.9710152,
        0.429015517,
        0.2024566,
        0.335636854,
        -0.08535808,
        -0.6353011,
        -0.6407655,
        0.7302824,
        0.9495779,
        0.353627563,
        -0.7770263,
        0.886943,
        -0.906087,
        0.1856935,
        0.423262239,
        0.37024188,
        -0.60898304,
        -0.945979536,
        0.2772181,
        -0.72071296,
        -0.9199811,
        0.9080044,
        -0.6511253,
        0.6984829,
        -0.5357521,
        0.6587727,
        0.7536056,
        0.780863762,
        0.5587603,
        0.411257148,
        0.152505159,
        0.392089248,
        0.211916327,
        0.9649141,
        -0.114674389,
        0.9327252,
        -0.529464662,
        -0.7021551,
        -0.791709363,
        -0.5429512,
        0.583649755,
        -0.679581165,
        -0.07846153,
        0.65948844,
        0.716401,
        0.6444924,
        -0.642148733,
        -0.6229329,
        -0.886646748,
        0.68885994,
        -0.7274998,
        -0.7552154,
        0.776437163,
        -0.949911058,
        0.585358262,
        0.149911761,
        0.894118667,
        -0.123092592,
        -0.788119853,
        0.297533035,
        0.9719573,
        0.893911242,
        -0.9306214,
        -0.617383,
        0.757905,
        -0.91028893,
        0.3807907,
        -0.08396727,
        0.7759354,
        -0.5517204,
        0.349108458,
        0.813676834,
        -0.542155,
        0.136911869,
        -0.973084152,
        0.465629578,
        0.803347468,
        0.0353739262,
        -0.283090234,
        -0.7466109,
        0.767050743,
        0.532155752,
        -0.9328343,
        0.6543397,
        0.602662563,
        -0.180917978,
        -0.465966284,
        0.127782345,
        -0.80218184,
        0.7787653,
        -0.828321755,
        0.5116267,
        -0.169160724,
        0.330070734,
        0.922831535,
        0.9151677,
        -0.2731824,
        0.8298762,
        0.5944016,
        -0.268221259,
        -0.334478676,
        0.250409,
        -0.304743648,
        0.915822864,
        0.02902627,
        0.8169259,
        0.107492447,
        0.7225214,
        0.0902786255,
        0.982517838,
        0.9641956,
        -0.5335883,
        0.238166332,
        0.391502023,
        0.8617877,
        -0.7712207,
        0.3047105,
        -0.6282071,
        -0.751868248,
        -0.7332572,
        0.385605335,
        0.507879853,
        -0.3031515,
        -0.0673401356,
        0.755810738,
        0.660684,
        -0.298592865,
        0.7763586,
        0.0238088369,
        -0.9641351,
        0.229632735,
        0.8371364,
        -0.904516459,
        0.880228162,
        -0.9418748,
        -0.9500477,
        0.179591656,
        -0.339094877,
        -0.7197934,
        0.134359956,
        -0.890707552,
        -0.573003531,
        0.7358048,
        0.3168478,
        0.6194787,
        -0.469407916,
        0.1515969,
        0.137788534,
        0.8858123,
        0.5712725,
        -0.6818986,
        0.8910899,
        -0.883404732,
        -0.878769457,
        0.6397283,
        0.9208839,
        -0.4619255,
        -0.450880826,
        -0.747051835,
        -0.544765055,
        -0.323578537,
        0.908532739,
        0.2593993,
        -0.656477451,
        -0.137992442,
        -0.687479138,
        -0.7651718,
        -0.374613047,
        -0.5452676,
        -0.339024484,
        -0.949833035,
        0.5762942,
        -0.958557367,
        -0.431311667,
        -0.474875271,
        -0.367535174,
        -0.7526905,
        -0.36184746,
        -0.3078258,
        0.606241,
        0.9151623,
        -0.449571669,
        0.60278964,
        -0.9290185,
        -0.684076,
        -0.8609581,
        0.346049547,
        -0.809545934,
        0.592180133,
        -0.114528954,
        0.5859518,
        -0.241477787,
        0.65299654,
        0.4828508,
        -0.17424655,
        -0.759578466,
        0.528797865,
        -0.6758622,
        0.6399821,
        -0.570683,
        0.294734359,
        0.7196412,
        0.012791872,
        0.55246985,
        0.0619475842,
        0.0541338921,
        -0.280090272,
        -0.898151636,
        0.73591423,
        0.2422967,
        0.4496895,
        0.891484141,
        0.8119035,
        0.384533048,
        -0.6482935,
        -0.1170032,
        -0.8588592,
        -0.97988224,
        0.557245731,
        0.148573756,
        -0.9724055,
        0.299684644,
        0.7833935,
        -0.125032127,
        0.400196433,
        -0.679695,
        0.09637725,
        -0.145000041,
        0.444998622,
        -0.401039481,
        0.9379885,
        -0.06693989,
        -0.198537588,
        0.622151,
        -0.7680305,
        -0.8239063,
        -0.457264483,
        -0.201100349,
        0.0209316015,
        0.2682681
      ],
      "Storage": {
        "Data": [
          -0.822439253,
          0.642645836,
          0.7387694,
          -0.403322756,
          -0.157384336,
          -0.7248266,
          0.656169057,
          -0.8905462,
          0.174750209,
          -0.398359,
          0.04404366,
          -0.5977346,
          -0.935140133,
          -0.439308763,
          0.159100533,
          -0.054087162,
          -0.6845891,
          0.996935844,
          -0.8843092,
          -0.4222949,
          -0.8494557,
          0.648700833,
          -0.162353337,
          -0.4387598,
          0.805149555,
          -0.122887433,
          0.6758015,
          -0.706075251,
          0.246127248,
          0.6023855,
          0.376338482,
          -0.8953913,
          0.227368236,
          -0.8237201,
          -0.488472879,
          -0.782423139,
          -0.6209025,
          -0.110436022,
          0.732666969,
          -0.215218782,
          0.9683862,
          0.7728541,
          -0.9991464,
          -0.314111173,
          -0.2469151,
          0.5509689,
          0.8021723,
          -0.24386245,
          -0.497553766,
          0.9771639,
          0.5045594,
          -0.741165,
          -0.179802716,
          -0.347825646,
          0.832261562,
          -0.123164892,
          0.126279354,
          -0.620725632,
          -0.155049264,
          0.9126501,
          0.0331341028,
          0.777806759,
          -0.388537,
          0.283320546,
          -0.9221195,
          -0.542060733,
          -0.7629095,
          0.92567873,
          -0.406348467,
          -0.15060997,
          0.574409962,
          -0.7366758,
          0.363766551,
          0.352546215,
          0.6805941,
          -0.0137290955,
          0.384255648,
          0.30003202,
          0.726531148,
          0.758535862,
          -0.189435661,
          0.286499739,
          -0.7135992,
          -0.6812538,
          0.729390144,
          0.4269936,
          -0.6018369,
          0.9667921,
          0.21556437,
          0.7150172,
          -0.3606425,
          -0.187522769,
          -0.2216121,
          -0.5960527,
          -0.105061054,
          -0.787502468,
          -0.525622,
          0.793343663,
          0.2573856,
          -0.857362151,
          0.5004412,
          -0.362459719,
          -0.9930947,
          0.0126049519,
          -0.586928368,
          0.878062963,
          0.8205285,
          0.431294441,
          0.1253773,
          0.4935627,
          0.16295135,
          -0.05845833,
          -0.676545739,
          0.008597374,
          -0.828781664,
          0.152783632,
          -0.6510012,
          -0.6160811,
          -0.428664625,
          -0.7523112,
          -0.5919386,
          -0.8344856,
          -0.103788018,
          -0.306363881,
          -0.932813048,
          0.5912509,
          -0.7539942,
          -0.6660229,
          -0.9452272,
          -0.5883291,
          0.746688366,
          0.100209475,
          -0.544390738,
          0.8936554,
          0.9959973,
          0.300760865,
          0.04921949,
          0.5559882,
          -0.250929058,
          -0.246462345,
          -0.9466769,
          -0.91806066,
          0.319332719,
          -0.39828974,
          0.676948547,
          -0.710014,
          0.959259033,
          0.7159015,
          -0.117776394,
          -0.5425116,
          -0.358002961,
          0.0414242744,
          -0.012149632,
          0.0552608967,
          0.278707743,
          0.7505088,
          0.7129133,
          -0.8043399,
          -0.281653464,
          0.07579231,
          0.566978931,
          -0.740386,
          0.688248038,
          0.38987112,
          0.2434876,
          0.716682434,
          -0.460947454,
          -0.7317803,
          0.44801712,
          0.711356163,
          0.983348846,
          -0.328087449,
          0.294251323,
          -0.581084967,
          -0.569947243,
          0.939427733,
          0.05515623,
          0.9767735,
          -0.4187622,
          -0.530062556,
          0.3508798,
          -0.105830669,
          -0.3831432,
          0.632710457,
          -0.3666023,
          -0.2089417,
          -0.7543118,
          0.8544097,
          0.29787612,
          -0.0713413954,
          0.128524184,
          -0.9178957,
          0.250078678,
          0.515247345,
          0.9954308,
          -0.963254333,
          -0.358112931,
          -0.1683129,
          -0.7148377,
          0.561957955,
          0.189199448,
          -0.914255559,
          -0.2152394,
          0.4527123,
          0.8885884,
          -0.0304068923,
          -0.158149183,
          0.474853754,
          0.422795653,
          -0.24559176,
          -0.529832363,
          0.443487048,
          -0.977516353,
          0.0176115036,
          -0.682387948,
          -0.6316489,
          -0.9557613,
          -0.8682025,
          -0.185517013,
          -0.591935933,
          0.899027944,
          -0.231971025,
          0.911720753,
          0.8671763,
          0.588528156,
          0.0728685856,
          -0.8435738,
          -0.8176969,
          0.7423856,
          -0.393284738,
          -0.0409203768,
          0.335369,
          -0.5297774,
          0.763028145,
          0.04692185,
          -0.590392,
          -0.09469372,
          0.417617321,
          -0.225844324,
          -0.965382755,
          0.651969552,
          -0.5128664,
          0.8855473,
          0.274287462,
          0.247362018,
          -0.844687939,
          0.7898811,
          0.516530156,
          0.39152503,
          0.285800338,
          -0.9857414,
          0.246904612,
          -0.370402873,
          0.287554383,
          -0.40823555,
          0.24551785,
          0.8852527,
          -0.3288532,
          -0.5903661,
          0.559888,
          -0.6085489,
          0.82635653,
          0.6046009,
          -0.514005661,
          -0.896412849,
          -0.235426784,
          0.7121022,
          -0.3250293,
          0.3504995,
          -0.222945511,
          0.39851737,
          -0.015576601,
          -0.6557985,
          -0.6604327,
          0.0063174963,
          -0.3944981,
          0.8048632,
          0.78054297,
          -0.295271575,
          0.285676122,
          0.623954654,
          0.8658408,
          -0.057272315,
          0.1154871,
          -0.384135544,
          -0.479457736,
          -0.2878682,
          -0.840004444,
          0.48924768,
          0.732126,
          -0.112458587,
          0.907599449,
          0.952792168,
          0.246780992,
          0.5217215,
          -0.608557045,
          -0.112229824,
          -0.5319458,
          -0.232909977,
          0.519328237,
          -0.8086551,
          -0.4016739,
          0.824787855,
          0.267971635,
          0.439853668,
          0.45901072,
          0.44764626,
          -0.291414678,
          0.4383558,
          -0.246014237,
          -0.76649785,
          -0.781024933,
          -0.9211822,
          -0.192462146,
          0.8612757,
          0.987663865,
          -0.3788752,
          0.5330732,
          -0.3232566,
          0.7065921,
          0.53669095,
          0.7394427,
          -0.755189657,
          -0.959297061,
          -0.460422039,
          0.362630367,
          -0.36047,
          0.81006825,
          -0.733164668,
          -0.130024612,
          -0.891156554,
          -0.5307379,
          0.7683915,
          -0.1743443,
          0.4596194,
          -0.879722357,
          0.0314077139,
          0.46989727,
          -0.5418969,
          0.6012213,
          0.9950144,
          0.46701932,
          -0.4476726,
          0.9798075,
          0.167653084,
          -0.8830286,
          -0.482027829,
          -0.273276746,
          0.452019334,
          -0.890674233,
          -0.7366319,
          0.0464280844,
          -0.0857149959,
          -0.721190453,
          -0.1490286,
          -0.06234747,
          -0.9995731,
          -0.490766764,
          -0.0713717341,
          0.143902421,
          -0.4647926,
          -0.257917,
          0.8597002,
          0.7908901,
          0.929953337,
          -0.210381866,
          0.3084309,
          0.19350481,
          0.402368665,
          -0.348138273,
          -0.9432757,
          -0.506794,
          -0.052842617,
          0.4763466,
          -0.53360033,
          0.4930489,
          0.8020613,
          -0.468218982,
          0.141779184,
          0.6221348,
          0.035326004,
          0.372736454,
          0.5857737,
          -0.225365877,
          -0.841769,
          0.570971966,
          -0.668055058,
          -0.891131163,
          0.22342813,
          0.353150249,
          -0.651185751,
          -0.02557081,
          0.239035487,
          -0.260963321,
          0.199995637,
          -0.6621562,
          -0.6913876,
          0.8337581,
          -0.0482403636,
          -0.0621913075,
          0.199328661,
          0.467217684,
          -0.371250451,
          -0.354613543,
          -0.572875,
          0.5033587,
          0.33877635,
          -0.617270231,
          -0.6137905,
          0.9431579,
          -0.8584613,
          0.850362539,
          -0.4838072,
          -0.935154855,
          0.167087078,
          -0.313539565,
          0.869598746,
          -0.0990514755,
          0.638839841,
          0.9528227,
          -0.18379277,
          -0.5093513,
          -0.3012597,
          0.227116585,
          0.7790139,
          -0.903706431,
          -0.439931929,
          0.815952063,
          0.0536903143,
          -0.08346641,
          0.7663547,
          -0.8458817,
          -0.5406399,
          -0.421356678,
          -0.7170067,
          0.4101907,
          0.4167521,
          0.7339922,
          0.150884151,
          0.92380023,
          0.239866734,
          -0.4292624,
          0.599591255,
          -0.2942105,
          -0.130804718,
          0.677046061,
          0.333516955,
          -0.761217,
          0.310648561,
          -0.532488,
          -0.899033248,
          0.375457764,
          0.567489743,
          -0.244592965,
          -0.23141247,
          -0.826160848,
          0.8269819,
          0.7825414,
          0.59118104,
          -0.933419466,
          -0.511932731,
          0.4303795,
          0.302223444,
          0.06699717,
          0.8596004,
          0.952103853,
          0.6409534,
          -0.9570094,
          -0.101721585,
          -0.634802938,
          -0.6096006,
          0.5290694,
          0.646908641,
          0.867719769,
          0.261174083,
          -0.28600955,
          -0.433876574,
          -0.0888353,
          -0.8533228,
          -0.5381458,
          0.6603068,
          -0.0006392598,
          -0.186526716,
          -0.08172095,
          0.0819159746,
          -0.45142895,
          -0.5193293,
          -0.352114618,
          0.8615837,
          0.68278,
          -0.400269032,
          -0.165126681,
          0.433621645,
          0.482126,
          -0.5678344,
          0.5970472,
          -0.502691269,
          0.548980951,
          -0.6989647,
          -0.5317848,
          -0.023170352,
          -0.574119568,
          0.9104829,
          0.432419181,
          -0.170479417,
          -0.9417113,
          -0.23563391,
          0.20324266,
          -0.858106256,
          -0.2544014,
          -0.151506484,
          -0.526567,
          0.5767964,
          0.334291816,
          0.5946984,
          -0.01355058,
          0.380262733,
          0.125188,
          -0.6525989,
          -0.320092559,
          0.411629081,
          0.9276782,
          0.5785532,
          0.257521749,
          -0.5449164,
          0.769696951,
          -0.12189585,
          0.351562142,
          0.7665938,
          -0.1100142,
          -0.3074805,
          -0.02974093,
          -0.2989605,
          0.9121258,
          -0.983049452,
          0.838981032,
          -0.4158737,
          0.44971776,
          -0.3035416,
          -0.2954198,
          0.776047349,
          -0.6884272,
          0.22040844,
          0.6040473,
          -0.14599973,
          -0.221868634,
          -0.835650444,
          0.325847149,
          -0.379451454,
          -0.661701739,
          0.478486657,
          -0.413397133,
          -0.245884657,
          -0.0251134634,
          -0.996604562,
          -0.444503844,
          -0.613851845,
          0.011416316,
          0.6760762,
          -0.132833362,
          0.773031235,
          0.875031,
          -0.4541214,
          0.5083754,
          0.448084,
          0.57946825,
          0.6776427,
          0.8789462,
          0.7997099,
          -0.72854507,
          0.418708563,
          0.6144688,
          0.8714191,
          0.3705784,
          -0.05811107,
          0.08335817,
          0.9710152,
          0.429015517,
          0.2024566,
          0.335636854,
          -0.08535808,
          -0.6353011,
          -0.6407655,
          0.7302824,
          0.9495779,
          0.353627563,
          -0.7770263,
          0.886943,
          -0.906087,
          0.1856935,
          0.423262239,
          0.37024188,
          -0.60898304,
          -0.945979536,
          0.2772181,
          -0.72071296,
          -0.9199811,
          0.9080044,
          -0.6511253,
          0.6984829,
          -0.5357521,
          0.6587727,
          0.7536056,
          0.780863762,
          0.5587603,
          0.411257148,
          0.152505159,
          0.392089248,
          0.211916327,
          0.9649141,
          -0.114674389,
          0.9327252,
          -0.529464662,
          -0.7021551,
          -0.791709363,
          -0.5429512,
          0.583649755,
          -0.679581165,
          -0.07846153,
          0.65948844,
          0.716401,
          0.6444924,
          -0.642148733,
          -0.6229329,
          -0.886646748,
          0.68885994,
          -0.7274998,
          -0.7552154,
          0.776437163,
          -0.949911058,
          0.585358262,
          0.149911761,
          0.894118667,
          -0.123092592,
          -0.788119853,
          0.297533035,
          0.9719573,
          0.893911242,
          -0.9306214,
          -0.617383,
          0.757905,
          -0.91028893,
          0.3807907,
          -0.08396727,
          0.7759354,
          -0.5517204,
          0.349108458,
          0.813676834,
          -0.542155,
          0.136911869,
          -0.973084152,
          0.465629578,
          0.803347468,
          0.0353739262,
          -0.283090234,
          -0.7466109,
          0.767050743,
          0.532155752,
          -0.9328343,
          0.6543397,
          0.602662563,
          -0.180917978,
          -0.465966284,
          0.127782345,
          -0.80218184,
          0.7787653,
          -0.828321755,
          0.5116267,
          -0.169160724,
          0.330070734,
          0.922831535,
          0.9151677,
          -0.2731824,
          0.8298762,
          0.5944016,
          -0.268221259,
          -0.334478676,
          0.250409,
          -0.304743648,
          0.915822864,
          0.02902627,
          0.8169259,
          0.107492447,
          0.7225214,
          0.0902786255,
          0.982517838,
          0.9641956,
          -0.5335883,
          0.238166332,
          0.391502023,
          0.8617877,
          -0.7712207,
          0.3047105,
          -0.6282071,
          -0.751868248,
          -0.7332572,
          0.385605335,
          0.507879853,
          -0.3031515,
          -0.0673401356,
          0.755810738,
          0.660684,
          -0.298592865,
          0.7763586,
          0.0238088369,
          -0.9641351,
          0.229632735,
          0.8371364,
          -0.904516459,
          0.880228162,
          -0.9418748,
          -0.9500477,
          0.179591656,
          -0.339094877,
          -0.7197934,
          0.134359956,
          -0.890707552,
          -0.573003531,
          0.7358048,
          0.3168478,
          0.6194787,
          -0.469407916,
          0.1515969,
          0.137788534,
          0.8858123,
          0.5712725,
          -0.6818986,
          0.8910899,
          -0.883404732,
          -0.878769457,
          0.6397283,
          0.9208839,
          -0.4619255,
          -0.450880826,
          -0.747051835,
          -0.544765055,
          -0.323578537,
          0.908532739,
          0.2593993,
          -0.656477451,
          -0.137992442,
          -0.687479138,
          -0.7651718,
          -0.374613047,
          -0.5452676,
          -0.339024484,
          -0.949833035,
          0.5762942,
          -0.958557367,
          -0.431311667,
          -0.474875271,
          -0.367535174,
          -0.7526905,
          -0.36184746,
          -0.3078258,
          0.606241,
          0.9151623,
          -0.449571669,
          0.60278964,
          -0.9290185,
          -0.684076,
          -0.8609581,
          0.346049547,
          -0.809545934,
          0.592180133,
          -0.114528954,
          0.5859518,
          -0.241477787,
          0.65299654,
          0.4828508,
          -0.17424655,
          -0.759578466,
          0.528797865,
          -0.6758622,
          0.6399821,
          -0.570683,
          0.294734359,
          0.7196412,
          0.012791872,
          0.55246985,
          0.0619475842,
          0.0541338921,
          -0.280090272,
          -0.898151636,
          0.73591423,
          0.2422967,
          0.4496895,
          0.891484141,
          0.8119035,
          0.384533048,
          -0.6482935,
          -0.1170032,
          -0.8588592,
          -0.97988224,
          0.557245731,
          0.148573756,
          -0.9724055,
          0.299684644,
          0.7833935,
          -0.125032127,
          0.400196433,
          -0.679695,
          0.09637725,
          -0.145000041,
          0.444998622,
          -0.401039481,
          0.9379885,
          -0.06693989,
          -0.198537588,
          0.622151,
          -0.7680305,
          -0.8239063,
          -0.457264483,
          -0.201100349,
          0.0209316015,
          0.2682681
        ],
        "RowCount": 51,
        "ColumnCount": 16
      },
      "ColumnCount": 16,
      "RowCount": 51
    },
    {
      "Values": [
        0.51038,
        -0.2878291,
        -0.2680763,
        -0.199231744,
        -0.556793332,
        0.831506968,
        0.8347064,
        0.5957557,
        -0.5180645,
        0.9951968,
        -0.202304721,
        0.490314841,
        -0.3251598,
        -0.04226798,
        -0.7337025,
        -0.883400857,
        0.2609886,
        -0.0054269433,
        -0.551884949,
        0.09067345,
        0.126744151,
        -0.8857955,
        0.570106149,
        0.158210874,
        0.887016535,
        -0.3599077,
        0.838090062,
        0.9596635,
        0.1677661,
        -0.9794716,
        -0.758658,
        -0.6781646,
        -0.6677821,
        -0.6830917,
        0.7729217,
        -0.724861443,
        0.299208283,
        0.09020901,
        0.08939552,
        0.6449295,
        -0.509716034,
        0.142221332,
        0.631364,
        -0.800379455,
        0.534024,
        -0.50324893,
        -0.8679588,
        -0.008715689,
        -0.191189766,
        0.928886056,
        0.81158483,
        0.133189678,
        -0.324484766,
        0.383505583,
        -0.4670781,
        -0.8920343,
        -0.293784082,
        0.5231968,
        0.571511865,
        0.7181294,
        -0.518249631,
        -0.350693762,
        0.1953901,
        0.2564416,
        -0.379616737,
        0.6417099,
        0.97388804,
        0.285360456,
        -0.92087245,
        -0.5751976,
        -0.3451776,
        0.330574632,
        -0.727803349,
        0.990697265,
        -0.955275536,
        0.212690711,
        0.6926397,
        0.9199915,
        0.284312367,
        -0.5520374,
        -0.09866148,
        0.146380663,
        -0.178073108,
        -0.9694862,
        -0.2839107,
        -0.08511484,
        0.2989154,
        0.2525977,
        -0.6671482,
        -0.4372154,
        0.7744014,
        -0.9073921,
        -0.3822679,
        -0.174156308,
        -0.23701179,
        0.17415452,
        -0.20887959,
        -0.307908237,
        0.06662655,
        -0.517287,
        -0.4631554,
        0.9624026,
        -0.5193744,
        0.235453486,
        -0.16701436,
        -0.829459965,
        0.566400647,
        0.23928082,
        -0.8213263,
        0.8708316,
        0.292644858,
        0.373481154,
        -0.0434727669,
        -0.1248523,
        0.260040164,
        0.456218,
        -0.07457715,
        -0.132405818,
        0.594017148,
        -0.229384184,
        -0.1584127,
        -0.9808959,
        -0.412441432,
        -0.659073234,
        -0.458552241,
        -0.993647,
        0.118714809,
        -0.8186941,
        -0.851923,
        0.450046539,
        -0.4695651,
        -0.9468802,
        0.9468968,
        0.3963771,
        0.8993963,
        -0.1088509,
        -0.7981622,
        -0.9757389,
        -0.258062,
        -0.7373132,
        -0.4952435,
        -0.5475966,
        0.185946226,
        0.9397634,
        -0.410416543,
        -0.7827319,
        -0.826767147,
        0.9646405,
        0.9339671,
        0.8850118,
        -0.770103633,
        -0.544203162,
        -0.4603299,
        -0.09258908,
        -0.272922575,
        0.5934204,
        -0.08541793,
        -0.0878001451,
        0.128864408,
        -0.934773266
      ],
      "Storage": {
        "Data": [
          0.51038,
          -0.2878291,
          -0.2680763,
          -0.199231744,
          -0.556793332,
          0.831506968,
          0.8347064,
          0.5957557,
          -0.5180645,
          0.9951968,
          -0.202304721,
          0.490314841,
          -0.3251598,
          -0.04226798,
          -0.7337025,
          -0.883400857,
          0.2609886,
          -0.0054269433,
          -0.551884949,
          0.09067345,
          0.126744151,
          -0.8857955,
          0.570106149,
          0.158210874,
          0.887016535,
          -0.3599077,
          0.838090062,
          0.9596635,
          0.1677661,
          -0.9794716,
          -0.758658,
          -0.6781646,
          -0.6677821,
          -0.6830917,
          0.7729217,
          -0.724861443,
          0.299208283,
          0.09020901,
          0.08939552,
          0.6449295,
          -0.509716034,
          0.142221332,
          0.631364,
          -0.800379455,
          0.534024,
          -0.50324893,
          -0.8679588,
          -0.008715689,
          -0.191189766,
          0.928886056,
          0.81158483,
          0.133189678,
          -0.324484766,
          0.383505583,
          -0.4670781,
          -0.8920343,
          -0.293784082,
          0.5231968,
          0.571511865,
          0.7181294,
          -0.518249631,
          -0.350693762,
          0.1953901,
          0.2564416,
          -0.379616737,
          0.6417099,
          0.97388804,
          0.285360456,
          -0.92087245,
          -0.5751976,
          -0.3451776,
          0.330574632,
          -0.727803349,
          0.990697265,
          -0.955275536,
          0.212690711,
          0.6926397,
          0.9199915,
          0.284312367,
          -0.5520374,
          -0.09866148,
          0.146380663,
          -0.178073108,
          -0.9694862,
          -0.2839107,
          -0.08511484,
          0.2989154,
          0.2525977,
          -0.6671482,
          -0.4372154,
          0.7744014,
          -0.9073921,
          -0.3822679,
          -0.174156308,
          -0.23701179,
          0.17415452,
          -0.20887959,
          -0.307908237,
          0.06662655,
          -0.517287,
          -0.4631554,
          0.9624026,
          -0.5193744,
          0.235453486,
          -0.16701436,
          -0.829459965,
          0.566400647,
          0.23928082,
          -0.8213263,
          0.8708316,
          0.292644858,
          0.373481154,
          -0.0434727669,
          -0.1248523,
          0.260040164,
          0.456218,
          -0.07457715,
          -0.132405818,
          0.594017148,
          -0.229384184,
          -0.1584127,
          -0.9808959,
          -0.412441432,
          -0.659073234,
          -0.458552241,
          -0.993647,
          0.118714809,
          -0.8186941,
          -0.851923,
          0.450046539,
          -0.4695651,
          -0.9468802,
          0.9468968,
          0.3963771,
          0.8993963,
          -0.1088509,
          -0.7981622,
          -0.9757389,
          -0.258062,
          -0.7373132,
          -0.4952435,
          -0.5475966,
          0.185946226,
          0.9397634,
          -0.410416543,
          -0.7827319,
          -0.826767147,
          0.9646405,
          0.9339671,
          0.8850118,
          -0.770103633,
          -0.544203162,
          -0.4603299,
          -0.09258908,
          -0.272922575,
          0.5934204,
          -0.08541793,
          -0.0878001451,
          0.128864408,
          -0.934773266
        ],
        "RowCount": 16,
        "ColumnCount": 10
      },
      "ColumnCount": 10,
      "RowCount": 16
    },
    {
      "Values": [
        0.566327453,
        0.6718193,
        -0.649395466,
        -0.108338952,
        0.958991647,
        -0.215843141,
        0.397901058,
        0.8796871,
        0.160762072,
        -0.121446609,
        0.354247332,
        -0.301900566,
        -0.950952351,
        0.681545138,
        -0.9495663,
        -0.972532451,
        0.09700656,
        -0.205848336,
        0.364284039,
        0.2551316
      ],
      "Storage": {
        "Data": [
          0.566327453,
          0.6718193,
          -0.649395466,
          -0.108338952,
          0.958991647,
          -0.215843141,
          0.397901058,
          0.8796871,
          0.160762072,
          -0.121446609,
          0.354247332,
          -0.301900566,
          -0.950952351,
          0.681545138,
          -0.9495663,
          -0.972532451,
          0.09700656,
          -0.205848336,
          0.364284039,
          0.2551316
        ],
        "RowCount": 10,
        "ColumnCount": 2
      },
      "ColumnCount": 2,
      "RowCount": 10
    }
  ],
  "biases": [
    {
      "Values": [
        -0.153448224,
        -0.9364786,
        -0.290384173,
        -0.8522546,
        -0.652573347,
        0.5049908,
        0.259185284,
        0.314286679,
        -0.129882455,
        -0.8562305,
        0.808143854,
        0.378347844,
        0.80852437,
        0.470972985,
        -0.543377161,
        0.245417714
      ],
      "Storage": {
        "Data": [
          -0.153448224,
          -0.9364786,
          -0.290384173,
          -0.8522546,
          -0.652573347,
          0.5049908,
          0.259185284,
          0.314286679,
          -0.129882455,
          -0.8562305,
          0.808143854,
          0.378347844,
          0.80852437,
          0.470972985,
          -0.543377161,
          0.245417714
        ],
        "RowCount": 1,
        "ColumnCount": 16
      },
      "ColumnCount": 16,
      "RowCount": 1
    },
    {
      "Values": [
        -0.149085879,
        0.561643362,
        0.77291584,
        0.816612959,
        -0.14557302,
        -0.9835682,
        0.0184143782,
        0.509143353,
        -0.390173316,
        -0.262710452
      ],
      "Storage": {
        "Data": [
          -0.149085879,
          0.561643362,
          0.77291584,
          0.816612959,
          -0.14557302,
          -0.9835682,
          0.0184143782,
          0.509143353,
          -0.390173316,
          -0.262710452
        ],
        "RowCount": 1,
        "ColumnCount": 10
      },
      "ColumnCount": 10,
      "RowCount": 1
    },
    {
      "Values": [
        0.6352284,
        -0.7797513
      ],
      "Storage": {
        "Data": [
          0.6352284,
          -0.7797513
        ],
        "RowCount": 1,
        "ColumnCount": 2
      },
      "ColumnCount": 2,
      "RowCount": 1
    }
  ],
  "fitness": 0.0,
  "activationType": 1,
  "inputLayerArray": {},
  "outputLayerArray": {},
  "hiddenLayerArray": [
    {},
    {}
  ],
  "weightsLayerArray": [
    {},
    {},
    {}
  ],
  "biasesLayerArray": [
    {},
    {},
    {}
  ]
}