{
  "inputLayer": {
    "Values": [
      0.549261749,
      0.5779355,
      0.6114611,
      0.650472164,
      0.695537269,
      0.7469296,
      0.804139555,
      0.8649372,
      0.9238808,
      0.9711093,
      0.995702863,
      0.999945343,
      0.999888241,
      0.8538412,
      0.5203296,
      0.3577409,
      0.27108568,
      0.2184422,
      0.183442265,
      0.158677489,
      0.145242691,
      0.130748719,
      0.119395636,
      0.110339426,
      0.103018589,
      0.0970463,
      0.09214846,
      0.0881265253,
      0.0848342255,
      0.08216261,
      0.08003011,
      0.07837592,
      0.077155374,
      0.076336965,
      0.0759002,
      0.07583433,
      0.07613776,
      0.0768179148,
      0.0778916851,
      0.07938645,
      0.08134191,
      0.08381263,
      0.08687212,
      0.09061862,
      0.09518364,
      0.100744896,
      0.107546091,
      0.115928225,
      0.126381,
      0.13963069,
      0.156798884
    ],
    "Storage": {
      "Data": [
        0.549261749,
        0.5779355,
        0.6114611,
        0.650472164,
        0.695537269,
        0.7469296,
        0.804139555,
        0.8649372,
        0.9238808,
        0.9711093,
        0.995702863,
        0.999945343,
        0.999888241,
        0.8538412,
        0.5203296,
        0.3577409,
        0.27108568,
        0.2184422,
        0.183442265,
        0.158677489,
        0.145242691,
        0.130748719,
        0.119395636,
        0.110339426,
        0.103018589,
        0.0970463,
        0.09214846,
        0.0881265253,
        0.0848342255,
        0.08216261,
        0.08003011,
        0.07837592,
        0.077155374,
        0.076336965,
        0.0759002,
        0.07583433,
        0.07613776,
        0.0768179148,
        0.0778916851,
        0.07938645,
        0.08134191,
        0.08381263,
        0.08687212,
        0.09061862,
        0.09518364,
        0.100744896,
        0.107546091,
        0.115928225,
        0.126381,
        0.13963069,
        0.156798884
      ],
      "RowCount": 1,
      "ColumnCount": 51
    },
    "ColumnCount": 51,
    "RowCount": 1
  },
  "hiddenLayers": [
    {
      "Values": [
        -0.899750054,
        -0.9983645,
        -0.5060915,
        0.2544512,
        -0.157058448,
        0.259723842,
        0.9924372,
        -0.975784659,
        0.5276013,
        -0.8745606,
        0.593054652,
        -0.198848963,
        0.9944089,
        -0.666479051,
        -0.956214368,
        -0.6604643
      ],
      "Storage": {
        "Data": [
          -0.899750054,
          -0.9983645,
          -0.5060915,
          0.2544512,
          -0.157058448,
          0.259723842,
          0.9924372,
          -0.975784659,
          0.5276013,
          -0.8745606,
          0.593054652,
          -0.198848963,
          0.9944089,
          -0.666479051,
          -0.956214368,
          -0.6604643
        ],
        "RowCount": 1,
        "ColumnCount": 16
      },
      "ColumnCount": 16,
      "RowCount": 1
    },
    {
      "Values": [
        0.9904794,
        -0.9292167,
        0.990926147,
        0.984766066,
        0.8802849,
        -0.008122861,
        -0.0529713258,
        0.989937,
        -0.4154572,
        -0.8023366
      ],
      "Storage": {
        "Data": [
          0.9904794,
          -0.9292167,
          0.990926147,
          0.984766066,
          0.8802849,
          -0.008122861,
          -0.0529713258,
          0.989937,
          -0.4154572,
          -0.8023366
        ],
        "RowCount": 1,
        "ColumnCount": 10
      },
      "ColumnCount": 10,
      "RowCount": 1
    }
  ],
  "outputLayer": {
    "Values": [
      0.142106056,
      0.0162940137
    ],
    "Storage": {
      "Data": [
        0.142106056,
        0.0162940137
      ],
      "RowCount": 1,
      "ColumnCount": 2
    },
    "ColumnCount": 2,
    "RowCount": 1
  },
  "weights": [
    {
      "Values": [
        -0.4866079,
        0.00205373764,
        -0.922737,
        0.769939542,
        0.4073137,
        -0.7137165,
        -0.18729192,
        -0.752982,
        -0.402809858,
        0.459789157,
        -0.314774752,
        -0.17783463,
        -0.26899296,
        -0.344295263,
        0.6539149,
        0.488281846,
        -0.583887339,
        -0.0576975346,
        0.8007587,
        -0.185331225,
        0.146778345,
        0.4274907,
        -0.8711296,
        0.485470653,
        0.6505116,
        0.8619722,
        0.231139421,
        0.325089931,
        0.647164,
        0.689463735,
        -0.542942643,
        -0.08128661,
        -0.03186059,
        -0.348194,
        -0.654381752,
        -0.7354808,
        0.800979137,
        -0.08116919,
        -0.542412043,
        0.8102733,
        -0.794882655,
        0.185096383,
        -0.237748027,
        0.7214781,
        0.93637073,
        -0.2816518,
        0.742967963,
        0.09573293,
        -0.293742716,
        0.481143951,
        -0.815266,
        0.00215053558,
        0.594388,
        0.9731872,
        -0.491631746,
        -0.5005088,
        -0.06673747,
        -0.572019339,
        -0.1392262,
        -0.5635363,
        -0.35499686,
        -0.1978051,
        -0.26360786,
        -0.86938107,
        -0.6366322,
        -0.0915617347,
        0.88909924,
        -0.72777164,
        -0.6677761,
        0.6174091,
        0.285308242,
        0.9596245,
        -0.26346004,
        -0.419614315,
        0.9202925,
        -0.0436537862,
        -0.348559916,
        -0.199608743,
        0.7189181,
        0.5857152,
        -0.340122461,
        0.9064572,
        0.0340983868,
        0.761217356,
        0.821216464,
        -0.824782848,
        -0.859855831,
        0.322900176,
        -0.654855251,
        0.130286217,
        -0.782163858,
        -0.272003055,
        -0.0608769059,
        -0.81283,
        -0.202952385,
        -0.786086261,
        -0.6631162,
        0.00329387188,
        0.0850684643,
        -0.348920166,
        -0.1448558,
        -0.218994141,
        0.9423981,
        -0.951521158,
        0.5940491,
        0.5527742,
        0.0969951153,
        0.0817109346,
        -0.7776832,
        -0.5059462,
        0.325202823,
        0.000155925751,
        0.189466715,
        -0.481469452,
        0.275877,
        -0.691457,
        0.642970562,
        0.318020582,
        0.5206586,
        0.8001734,
        0.845006,
        0.8668163,
        -0.0589296222,
        -0.560318947,
        0.2413081,
        -0.4875614,
        0.697463036,
        -0.898882151,
        -0.0930285454,
        0.5317669,
        0.9710593,
        0.271683216,
        0.1465205,
        -0.5750728,
        0.7505449,
        -0.2975322,
        -0.5609175,
        0.3722037,
        -0.09727764,
        0.0140889883,
        0.776739836,
        0.692574143,
        -0.8447071,
        -0.69635725,
        0.315182328,
        -0.6334228,
        -0.8975807,
        -0.5646231,
        0.04389131,
        -0.7967283,
        -0.4561351,
        0.645337,
        0.278428435,
        0.037327528,
        0.06760514,
        0.243653178,
        0.555075049,
        0.7137729,
        -0.6723114,
        0.245420337,
        0.943184257,
        0.164287925,
        0.511773348,
        -0.397181869,
        -0.333947718,
        -0.064514935,
        -0.5210912,
        0.5309378,
        -0.6039237,
        -0.237173676,
        0.03548515,
        0.188696146,
        -0.7560549,
        -0.845617056,
        -0.406727552,
        0.904678941,
        -0.9459458,
        0.466060042,
        0.426440716,
        -0.339863181,
        0.6203834,
        0.201229453,
        0.5281334,
        0.7111132,
        -0.820729434,
        -0.516966,
        0.0248196125,
        0.8193909,
        -0.78870666,
        0.285286665,
        -0.8704813,
        0.5455098,
        0.5631635,
        -0.4257301,
        0.5129192,
        -0.7719128,
        0.337749839,
        0.254731536,
        0.9910122,
        0.8764453,
        0.2293725,
        -0.545851231,
        -0.551980436,
        -0.213593245,
        0.217296839,
        0.203181267,
        0.574365854,
        -0.7427505,
        -0.726793051,
        0.8541012,
        -0.5137781,
        0.125725627,
        -0.883042634,
        -0.750216842,
        0.8163507,
        0.2518736,
        0.44526124,
        -0.213616908,
        -0.817330241,
        0.257336259,
        0.09816587,
        -0.630653739,
        0.4750104,
        0.09751487,
        0.510885239,
        -0.8981398,
        0.8196939,
        -0.950437069,
        -0.201659858,
        0.5202886,
        -0.8760981,
        0.724111438,
        0.936723,
        -0.458753169,
        -0.855207443,
        -0.371689081,
        -0.5501572,
        -0.546467841,
        -0.784542143,
        0.484073758,
        -0.4802069,
        0.5733464,
        0.438422441,
        0.102324605,
        0.5739149,
        -0.400454283,
        0.7496476,
        0.00364208221,
        -0.210332155,
        -0.58140707,
        -0.8350442,
        -0.299793243,
        -0.07105762,
        0.743070841,
        -0.879909337,
        -0.0462469459,
        0.5889822,
        0.23502481,
        -0.247203588,
        -0.986697733,
        0.555002451,
        -0.104083717,
        0.949232,
        0.723930836,
        -0.0373808742,
        -0.9812134,
        -0.427065372,
        0.999528766,
        -0.6690382,
        -0.6862922,
        0.999068,
        -0.297755,
        -0.609548569,
        -0.114250541,
        -0.05012971,
        -0.6357037,
        -0.8998838,
        -0.1997698,
        0.487998724,
        -0.974421561,
        -0.9008689,
        -0.485047519,
        0.7296109,
        0.921496034,
        -0.150994122,
        -0.5125072,
        -0.652252853,
        -0.352598369,
        0.835227966,
        0.00350821018,
        0.8044373,
        0.457264543,
        0.658385634,
        0.340483785,
        -0.163574815,
        0.08019507,
        0.5607692,
        0.373928666,
        0.156042457,
        0.0581305027,
        0.0980398655,
        -0.7276825,
        0.9588506,
        -0.30653435,
        -0.7706307,
        -0.0536252856,
        -0.7424059,
        0.5312823,
        0.319144845,
        -0.450622737,
        0.645679951,
        -0.864094,
        0.6509497,
        0.8517648,
        0.503474832,
        0.490648985,
        -0.8884487,
        0.0254545212,
        0.02183795,
        0.322970033,
        0.4721917,
        0.108533859,
        -0.520130634,
        0.818879,
        -0.270588934,
        -0.9832361,
        0.406316638,
        0.5439513,
        -0.455243349,
        0.7300843,
        0.187933683,
        0.299563527,
        0.7677413,
        0.2762313,
        0.197131991,
        0.3707676,
        0.660080433,
        0.5334946,
        0.5443425,
        -0.0144252181,
        0.7318547,
        -0.514151,
        -0.70544374,
        0.328022957,
        -0.08615577,
        -0.7967355,
        -0.484814763,
        0.394260168,
        -0.342260182,
        -0.374432743,
        -0.05894339,
        0.462384582,
        -0.142276525,
        0.417172074,
        0.6741593,
        0.185201287,
        -0.5376593,
        -0.9871903,
        -0.913894236,
        0.9479275,
        0.0195140839,
        0.202853918,
        -0.8514307,
        0.888389,
        -0.314561129,
        -0.400088429,
        -0.9736717,
        -0.2608022,
        0.569411039,
        -0.7829204,
        0.208440781,
        0.1344397,
        -0.403017461,
        -0.815236,
        0.230908036,
        0.9326029,
        0.452406049,
        -0.366834462,
        -0.339588046,
        -0.40807873,
        -0.2018587,
        -0.3383093,
        -0.124069214,
        -0.5580939,
        -0.7689759,
        0.51274085,
        -0.516395748,
        -0.7336049,
        -0.206929564,
        0.5653056,
        -0.379196942,
        -0.329616785,
        -0.08509487,
        0.8713957,
        0.6233566,
        -0.6514241,
        -0.370082021,
        -0.460682571,
        -0.128344536,
        0.615451455,
        0.946663141,
        -0.833095253,
        -0.436287582,
        0.0266602039,
        -0.0128411055,
        -0.933706343,
        -0.0532980561,
        -0.690087736,
        -0.979678631,
        0.35623455,
        0.007203102,
        0.512125134,
        0.818168044,
        -0.6791688,
        0.358481526,
        -0.3055557,
        0.5205636,
        0.7638314,
        -0.342444479,
        0.570364237,
        -0.0151447654,
        -0.665172,
        0.410925269,
        0.0211058855,
        0.423560023,
        -0.105477154,
        -0.512450457,
        -0.616675,
        -0.729670048,
        -0.8085402,
        0.7505317,
        0.617122531,
        0.587984562,
        0.05400133,
        -0.04510969,
        0.06196928,
        -0.4109261,
        -0.897833347,
        -0.9759082,
        0.851442456,
        -0.5599584,
        0.9174422,
        -0.116137743,
        -0.963091552,
        -0.7341759,
        0.237730861,
        0.958362341,
        0.7981119,
        0.24896884,
        0.961231351,
        0.7558006,
        -0.555712,
        -0.6220459,
        0.8823453,
        0.005144596,
        -0.6760702,
        -0.7797342,
        0.7490823,
        0.0309737921,
        0.5595397,
        -0.433513165,
        -0.346225381,
        -0.165547371,
        0.8005849,
        -0.668849766,
        -0.245156944,
        -0.9832247,
        0.139037848,
        -0.8919284,
        0.218776941,
        0.199509382,
        0.01085043,
        -0.30013907,
        -0.347934,
        -0.177937627,
        -0.8672415,
        -0.7556507,
        -0.0124225616,
        0.548950434,
        0.7874384,
        0.5949713,
        0.8857113,
        0.553921342,
        -0.0303044319,
        -0.49257952,
        0.643710136,
        -0.2702402,
        0.459217072,
        -0.40312463,
        -0.2965473,
        -0.211373448,
        -0.9828185,
        0.9836378,
        -0.534495831,
        -0.204666317,
        -0.6164042,
        -0.5247202,
        0.3307842,
        0.07283652,
        -0.778237045,
        0.2856636,
        0.746629953,
        0.099877,
        0.851324439,
        0.172586918,
        0.8985661,
        0.378432035,
        0.2732023,
        -0.8563291,
        -0.141589463,
        0.160113692,
        0.5173625,
        0.8870387,
        0.0177201033,
        0.2178644,
        0.2529639,
        -0.3678018,
        0.845883369,
        0.19139564,
        -0.5956565,
        -0.9922286,
        0.515600562,
        0.983028531,
        -0.5652249,
        0.06433272,
        -0.435201466,
        -0.383660674,
        -0.173818588,
        -0.09815079,
        0.535091639,
        -0.7532403,
        0.450651884,
        -0.588313,
        0.3054402,
        -0.9845196,
        0.241493225,
        -0.8802072,
        -0.236413777,
        -0.0889681,
        0.9254383,
        0.9806638,
        -0.18657279,
        -0.498151362,
        0.6931255,
        0.5305575,
        -0.7748693,
        0.402287364,
        -0.00937283,
        0.122824669,
        0.8212303,
        -0.65002054,
        0.471519232,
        0.107840419,
        0.4893192,
        -0.8991991,
        -0.8048241,
        -0.746118546,
        -0.61123234,
        -0.918914,
        0.897086263,
        0.416080356,
        -0.102429986,
        -0.05196786,
        -0.330632925,
        0.8241199,
        0.3543142,
        0.172663569,
        -0.065579,
        -0.55706203,
        0.9508493,
        0.473811984,
        -0.0465475321,
        -0.6568483,
        -0.396093428,
        -0.322441041,
        -0.415957272,
        -0.9910463,
        -0.40426296,
        -0.06019956,
        0.687200069,
        0.7069423,
        -0.172570109,
        -0.06332487,
        0.749289632,
        -0.150467575,
        0.09505844,
        0.07320571,
        0.888043046,
        0.168141246,
        0.07818484,
        0.535643339,
        -0.465842426,
        -0.441450953,
        0.27760303,
        -0.33589977,
        -0.284552872,
        -0.04887259,
        -0.173434377,
        -0.7427819,
        0.6518762,
        -0.0138760209,
        -0.7596814,
        0.8610363,
        0.268486738,
        -0.606970549,
        0.612029433,
        -0.7047034,
        0.234084368,
        0.761382,
        0.8165194,
        -0.00103878975,
        0.345061541,
        0.804229259,
        0.253566146,
        -0.517148137,
        0.248576522,
        0.521450758,
        0.250404835,
        0.233766556,
        -0.07588142,
        0.0165991783,
        0.7952541,
        -0.6230012,
        0.7585021,
        0.109555244,
        0.296473026,
        -0.06537008,
        0.7284968,
        -0.590370357,
        0.397036672,
        0.3520981,
        -0.100571215,
        0.59041,
        0.956189156,
        -0.9605649,
        -0.4495827,
        0.10003674,
        -0.238031089,
        0.377841115,
        -0.628814,
        0.480734468,
        0.999649763,
        -0.6828755,
        -0.35332638,
        0.746469855,
        -0.264717579,
        0.336241245,
        0.848002434,
        -0.5260606,
        0.343651652,
        0.8401518,
        -0.7516075,
        0.13440299,
        -0.669554353,
        -0.6275842,
        0.6497656,
        0.9248706,
        -0.8889767,
        0.2677548,
        -0.68493253,
        -0.365176976,
        0.6859728,
        -0.194172919,
        -0.8008383,
        -0.217810512,
        0.8297839,
        -0.4711877,
        0.9823867,
        0.1542778,
        0.938781261,
        -0.159100533,
        0.553384542,
        -0.406259179,
        -0.09687543,
        0.652942538,
        -0.9861882,
        -0.743252933,
        -0.174618065,
        -0.681899667,
        0.3769132,
        -0.229888439,
        -0.511533,
        -0.293158054,
        -0.07940489,
        -0.576931238,
        -0.00473791361,
        0.4980092,
        0.07647669,
        -0.5713142,
        -0.407736182,
        0.852488637,
        0.2276659,
        0.9526111,
        0.703706861,
        0.477730632,
        0.3524871,
        -0.304472923,
        0.9347476,
        -0.579376936,
        0.0155477524,
        0.984046936,
        -0.8356466,
        -0.5622753,
        -0.359065056,
        0.265965939,
        -0.3151043,
        -0.00344705582,
        0.8164991,
        -0.6294933,
        -0.535181165,
        0.7799281,
        -0.552450538,
        0.224501014,
        -0.5325155,
        0.366701961,
        -0.8804008,
        -0.244983792,
        -0.262333632,
        -0.134530187,
        -0.441027224,
        0.138350964,
        -0.679970145,
        0.5108491,
        -0.6501776,
        -0.993513465,
        -0.124571085,
        -0.240627587,
        0.510140061,
        0.01899457,
        0.394569874,
        0.660104752,
        0.35173738,
        -0.436166167,
        -0.061763525,
        0.3075484,
        0.146140933,
        -0.8746244,
        -0.261346757,
        -0.9949478,
        -0.7096873,
        0.4084556,
        0.886674166,
        0.129452348,
        0.357455015,
        0.8933424,
        0.597692,
        0.554239154,
        -0.595882058,
        0.490506768,
        -0.979790866,
        0.09353626,
        0.5779463,
        -0.199082375,
        -0.8045507,
        -0.108039856,
        0.551866651,
        0.67430687,
        0.457264423,
        0.9705719,
        -0.87354517,
        0.0894086361,
        0.533034563,
        -0.930761635,
        -0.442356884,
        0.195413,
        0.167946219,
        0.386996031,
        0.9284204,
        -0.459041953,
        0.370185971,
        -0.0714967251,
        0.288996339,
        -0.243267477,
        0.706822157,
        -0.6959393,
        -0.487511337,
        -0.8684143,
        -0.596112251,
        -0.5653507,
        0.46044898,
        0.631106138,
        0.0688192844,
        -0.214270473,
        0.379454017,
        0.396292448,
        0.0112228394,
        0.120807409,
        -0.07738817,
        -0.3162682,
        0.964601755,
        0.5938599,
        -0.0270681977,
        0.196280718,
        -0.533544,
        0.05699551,
        -0.8387622,
        -0.19864428,
        0.156624079,
        0.00265169144,
        0.401003718,
        0.8977077,
        -0.605841756,
        -0.195798516,
        0.423299551,
        0.513602734,
        -0.857366741,
        0.8381071,
        -0.0356395245,
        0.282295942,
        -0.7330296,
        0.565532565,
        0.00724434853,
        -0.3537066,
        -0.46181953,
        -0.0296666622,
        -0.9557711
      ],
      "Storage": {
        "Data": [
          -0.4866079,
          0.00205373764,
          -0.922737,
          0.769939542,
          0.4073137,
          -0.7137165,
          -0.18729192,
          -0.752982,
          -0.402809858,
          0.459789157,
          -0.314774752,
          -0.17783463,
          -0.26899296,
          -0.344295263,
          0.6539149,
          0.488281846,
          -0.583887339,
          -0.0576975346,
          0.8007587,
          -0.185331225,
          0.146778345,
          0.4274907,
          -0.8711296,
          0.485470653,
          0.6505116,
          0.8619722,
          0.231139421,
          0.325089931,
          0.647164,
          0.689463735,
          -0.542942643,
          -0.08128661,
          -0.03186059,
          -0.348194,
          -0.654381752,
          -0.7354808,
          0.800979137,
          -0.08116919,
          -0.542412043,
          0.8102733,
          -0.794882655,
          0.185096383,
          -0.237748027,
          0.7214781,
          0.93637073,
          -0.2816518,
          0.742967963,
          0.09573293,
          -0.293742716,
          0.481143951,
          -0.815266,
          0.00215053558,
          0.594388,
          0.9731872,
          -0.491631746,
          -0.5005088,
          -0.06673747,
          -0.572019339,
          -0.1392262,
          -0.5635363,
          -0.35499686,
          -0.1978051,
          -0.26360786,
          -0.86938107,
          -0.6366322,
          -0.0915617347,
          0.88909924,
          -0.72777164,
          -0.6677761,
          0.6174091,
          0.285308242,
          0.9596245,
          -0.26346004,
          -0.419614315,
          0.9202925,
          -0.0436537862,
          -0.348559916,
          -0.199608743,
          0.7189181,
          0.5857152,
          -0.340122461,
          0.9064572,
          0.0340983868,
          0.761217356,
          0.821216464,
          -0.824782848,
          -0.859855831,
          0.322900176,
          -0.654855251,
          0.130286217,
          -0.782163858,
          -0.272003055,
          -0.0608769059,
          -0.81283,
          -0.202952385,
          -0.786086261,
          -0.6631162,
          0.00329387188,
          0.0850684643,
          -0.348920166,
          -0.1448558,
          -0.218994141,
          0.9423981,
          -0.951521158,
          0.5940491,
          0.5527742,
          0.0969951153,
          0.0817109346,
          -0.7776832,
          -0.5059462,
          0.325202823,
          0.000155925751,
          0.189466715,
          -0.481469452,
          0.275877,
          -0.691457,
          0.642970562,
          0.318020582,
          0.5206586,
          0.8001734,
          0.845006,
          0.8668163,
          -0.0589296222,
          -0.560318947,
          0.2413081,
          -0.4875614,
          0.697463036,
          -0.898882151,
          -0.0930285454,
          0.5317669,
          0.9710593,
          0.271683216,
          0.1465205,
          -0.5750728,
          0.7505449,
          -0.2975322,
          -0.5609175,
          0.3722037,
          -0.09727764,
          0.0140889883,
          0.776739836,
          0.692574143,
          -0.8447071,
          -0.69635725,
          0.315182328,
          -0.6334228,
          -0.8975807,
          -0.5646231,
          0.04389131,
          -0.7967283,
          -0.4561351,
          0.645337,
          0.278428435,
          0.037327528,
          0.06760514,
          0.243653178,
          0.555075049,
          0.7137729,
          -0.6723114,
          0.245420337,
          0.943184257,
          0.164287925,
          0.511773348,
          -0.397181869,
          -0.333947718,
          -0.064514935,
          -0.5210912,
          0.5309378,
          -0.6039237,
          -0.237173676,
          0.03548515,
          0.188696146,
          -0.7560549,
          -0.845617056,
          -0.406727552,
          0.904678941,
          -0.9459458,
          0.466060042,
          0.426440716,
          -0.339863181,
          0.6203834,
          0.201229453,
          0.5281334,
          0.7111132,
          -0.820729434,
          -0.516966,
          0.0248196125,
          0.8193909,
          -0.78870666,
          0.285286665,
          -0.8704813,
          0.5455098,
          0.5631635,
          -0.4257301,
          0.5129192,
          -0.7719128,
          0.337749839,
          0.254731536,
          0.9910122,
          0.8764453,
          0.2293725,
          -0.545851231,
          -0.551980436,
          -0.213593245,
          0.217296839,
          0.203181267,
          0.574365854,
          -0.7427505,
          -0.726793051,
          0.8541012,
          -0.5137781,
          0.125725627,
          -0.883042634,
          -0.750216842,
          0.8163507,
          0.2518736,
          0.44526124,
          -0.213616908,
          -0.817330241,
          0.257336259,
          0.09816587,
          -0.630653739,
          0.4750104,
          0.09751487,
          0.510885239,
          -0.8981398,
          0.8196939,
          -0.950437069,
          -0.201659858,
          0.5202886,
          -0.8760981,
          0.724111438,
          0.936723,
          -0.458753169,
          -0.855207443,
          -0.371689081,
          -0.5501572,
          -0.546467841,
          -0.784542143,
          0.484073758,
          -0.4802069,
          0.5733464,
          0.438422441,
          0.102324605,
          0.5739149,
          -0.400454283,
          0.7496476,
          0.00364208221,
          -0.210332155,
          -0.58140707,
          -0.8350442,
          -0.299793243,
          -0.07105762,
          0.743070841,
          -0.879909337,
          -0.0462469459,
          0.5889822,
          0.23502481,
          -0.247203588,
          -0.986697733,
          0.555002451,
          -0.104083717,
          0.949232,
          0.723930836,
          -0.0373808742,
          -0.9812134,
          -0.427065372,
          0.999528766,
          -0.6690382,
          -0.6862922,
          0.999068,
          -0.297755,
          -0.609548569,
          -0.114250541,
          -0.05012971,
          -0.6357037,
          -0.8998838,
          -0.1997698,
          0.487998724,
          -0.974421561,
          -0.9008689,
          -0.485047519,
          0.7296109,
          0.921496034,
          -0.150994122,
          -0.5125072,
          -0.652252853,
          -0.352598369,
          0.835227966,
          0.00350821018,
          0.8044373,
          0.457264543,
          0.658385634,
          0.340483785,
          -0.163574815,
          0.08019507,
          0.5607692,
          0.373928666,
          0.156042457,
          0.0581305027,
          0.0980398655,
          -0.7276825,
          0.9588506,
          -0.30653435,
          -0.7706307,
          -0.0536252856,
          -0.7424059,
          0.5312823,
          0.319144845,
          -0.450622737,
          0.645679951,
          -0.864094,
          0.6509497,
          0.8517648,
          0.503474832,
          0.490648985,
          -0.8884487,
          0.0254545212,
          0.02183795,
          0.322970033,
          0.4721917,
          0.108533859,
          -0.520130634,
          0.818879,
          -0.270588934,
          -0.9832361,
          0.406316638,
          0.5439513,
          -0.455243349,
          0.7300843,
          0.187933683,
          0.299563527,
          0.7677413,
          0.2762313,
          0.197131991,
          0.3707676,
          0.660080433,
          0.5334946,
          0.5443425,
          -0.0144252181,
          0.7318547,
          -0.514151,
          -0.70544374,
          0.328022957,
          -0.08615577,
          -0.7967355,
          -0.484814763,
          0.394260168,
          -0.342260182,
          -0.374432743,
          -0.05894339,
          0.462384582,
          -0.142276525,
          0.417172074,
          0.6741593,
          0.185201287,
          -0.5376593,
          -0.9871903,
          -0.913894236,
          0.9479275,
          0.0195140839,
          0.202853918,
          -0.8514307,
          0.888389,
          -0.314561129,
          -0.400088429,
          -0.9736717,
          -0.2608022,
          0.569411039,
          -0.7829204,
          0.208440781,
          0.1344397,
          -0.403017461,
          -0.815236,
          0.230908036,
          0.9326029,
          0.452406049,
          -0.366834462,
          -0.339588046,
          -0.40807873,
          -0.2018587,
          -0.3383093,
          -0.124069214,
          -0.5580939,
          -0.7689759,
          0.51274085,
          -0.516395748,
          -0.7336049,
          -0.206929564,
          0.5653056,
          -0.379196942,
          -0.329616785,
          -0.08509487,
          0.8713957,
          0.6233566,
          -0.6514241,
          -0.370082021,
          -0.460682571,
          -0.128344536,
          0.615451455,
          0.946663141,
          -0.833095253,
          -0.436287582,
          0.0266602039,
          -0.0128411055,
          -0.933706343,
          -0.0532980561,
          -0.690087736,
          -0.979678631,
          0.35623455,
          0.007203102,
          0.512125134,
          0.818168044,
          -0.6791688,
          0.358481526,
          -0.3055557,
          0.5205636,
          0.7638314,
          -0.342444479,
          0.570364237,
          -0.0151447654,
          -0.665172,
          0.410925269,
          0.0211058855,
          0.423560023,
          -0.105477154,
          -0.512450457,
          -0.616675,
          -0.729670048,
          -0.8085402,
          0.7505317,
          0.617122531,
          0.587984562,
          0.05400133,
          -0.04510969,
          0.06196928,
          -0.4109261,
          -0.897833347,
          -0.9759082,
          0.851442456,
          -0.5599584,
          0.9174422,
          -0.116137743,
          -0.963091552,
          -0.7341759,
          0.237730861,
          0.958362341,
          0.7981119,
          0.24896884,
          0.961231351,
          0.7558006,
          -0.555712,
          -0.6220459,
          0.8823453,
          0.005144596,
          -0.6760702,
          -0.7797342,
          0.7490823,
          0.0309737921,
          0.5595397,
          -0.433513165,
          -0.346225381,
          -0.165547371,
          0.8005849,
          -0.668849766,
          -0.245156944,
          -0.9832247,
          0.139037848,
          -0.8919284,
          0.218776941,
          0.199509382,
          0.01085043,
          -0.30013907,
          -0.347934,
          -0.177937627,
          -0.8672415,
          -0.7556507,
          -0.0124225616,
          0.548950434,
          0.7874384,
          0.5949713,
          0.8857113,
          0.553921342,
          -0.0303044319,
          -0.49257952,
          0.643710136,
          -0.2702402,
          0.459217072,
          -0.40312463,
          -0.2965473,
          -0.211373448,
          -0.9828185,
          0.9836378,
          -0.534495831,
          -0.204666317,
          -0.6164042,
          -0.5247202,
          0.3307842,
          0.07283652,
          -0.778237045,
          0.2856636,
          0.746629953,
          0.099877,
          0.851324439,
          0.172586918,
          0.8985661,
          0.378432035,
          0.2732023,
          -0.8563291,
          -0.141589463,
          0.160113692,
          0.5173625,
          0.8870387,
          0.0177201033,
          0.2178644,
          0.2529639,
          -0.3678018,
          0.845883369,
          0.19139564,
          -0.5956565,
          -0.9922286,
          0.515600562,
          0.983028531,
          -0.5652249,
          0.06433272,
          -0.435201466,
          -0.383660674,
          -0.173818588,
          -0.09815079,
          0.535091639,
          -0.7532403,
          0.450651884,
          -0.588313,
          0.3054402,
          -0.9845196,
          0.241493225,
          -0.8802072,
          -0.236413777,
          -0.0889681,
          0.9254383,
          0.9806638,
          -0.18657279,
          -0.498151362,
          0.6931255,
          0.5305575,
          -0.7748693,
          0.402287364,
          -0.00937283,
          0.122824669,
          0.8212303,
          -0.65002054,
          0.471519232,
          0.107840419,
          0.4893192,
          -0.8991991,
          -0.8048241,
          -0.746118546,
          -0.61123234,
          -0.918914,
          0.897086263,
          0.416080356,
          -0.102429986,
          -0.05196786,
          -0.330632925,
          0.8241199,
          0.3543142,
          0.172663569,
          -0.065579,
          -0.55706203,
          0.9508493,
          0.473811984,
          -0.0465475321,
          -0.6568483,
          -0.396093428,
          -0.322441041,
          -0.415957272,
          -0.9910463,
          -0.40426296,
          -0.06019956,
          0.687200069,
          0.7069423,
          -0.172570109,
          -0.06332487,
          0.749289632,
          -0.150467575,
          0.09505844,
          0.07320571,
          0.888043046,
          0.168141246,
          0.07818484,
          0.535643339,
          -0.465842426,
          -0.441450953,
          0.27760303,
          -0.33589977,
          -0.284552872,
          -0.04887259,
          -0.173434377,
          -0.7427819,
          0.6518762,
          -0.0138760209,
          -0.7596814,
          0.8610363,
          0.268486738,
          -0.606970549,
          0.612029433,
          -0.7047034,
          0.234084368,
          0.761382,
          0.8165194,
          -0.00103878975,
          0.345061541,
          0.804229259,
          0.253566146,
          -0.517148137,
          0.248576522,
          0.521450758,
          0.250404835,
          0.233766556,
          -0.07588142,
          0.0165991783,
          0.7952541,
          -0.6230012,
          0.7585021,
          0.109555244,
          0.296473026,
          -0.06537008,
          0.7284968,
          -0.590370357,
          0.397036672,
          0.3520981,
          -0.100571215,
          0.59041,
          0.956189156,
          -0.9605649,
          -0.4495827,
          0.10003674,
          -0.238031089,
          0.377841115,
          -0.628814,
          0.480734468,
          0.999649763,
          -0.6828755,
          -0.35332638,
          0.746469855,
          -0.264717579,
          0.336241245,
          0.848002434,
          -0.5260606,
          0.343651652,
          0.8401518,
          -0.7516075,
          0.13440299,
          -0.669554353,
          -0.6275842,
          0.6497656,
          0.9248706,
          -0.8889767,
          0.2677548,
          -0.68493253,
          -0.365176976,
          0.6859728,
          -0.194172919,
          -0.8008383,
          -0.217810512,
          0.8297839,
          -0.4711877,
          0.9823867,
          0.1542778,
          0.938781261,
          -0.159100533,
          0.553384542,
          -0.406259179,
          -0.09687543,
          0.652942538,
          -0.9861882,
          -0.743252933,
          -0.174618065,
          -0.681899667,
          0.3769132,
          -0.229888439,
          -0.511533,
          -0.293158054,
          -0.07940489,
          -0.576931238,
          -0.00473791361,
          0.4980092,
          0.07647669,
          -0.5713142,
          -0.407736182,
          0.852488637,
          0.2276659,
          0.9526111,
          0.703706861,
          0.477730632,
          0.3524871,
          -0.304472923,
          0.9347476,
          -0.579376936,
          0.0155477524,
          0.984046936,
          -0.8356466,
          -0.5622753,
          -0.359065056,
          0.265965939,
          -0.3151043,
          -0.00344705582,
          0.8164991,
          -0.6294933,
          -0.535181165,
          0.7799281,
          -0.552450538,
          0.224501014,
          -0.5325155,
          0.366701961,
          -0.8804008,
          -0.244983792,
          -0.262333632,
          -0.134530187,
          -0.441027224,
          0.138350964,
          -0.679970145,
          0.5108491,
          -0.6501776,
          -0.993513465,
          -0.124571085,
          -0.240627587,
          0.510140061,
          0.01899457,
          0.394569874,
          0.660104752,
          0.35173738,
          -0.436166167,
          -0.061763525,
          0.3075484,
          0.146140933,
          -0.8746244,
          -0.261346757,
          -0.9949478,
          -0.7096873,
          0.4084556,
          0.886674166,
          0.129452348,
          0.357455015,
          0.8933424,
          0.597692,
          0.554239154,
          -0.595882058,
          0.490506768,
          -0.979790866,
          0.09353626,
          0.5779463,
          -0.199082375,
          -0.8045507,
          -0.108039856,
          0.551866651,
          0.67430687,
          0.457264423,
          0.9705719,
          -0.87354517,
          0.0894086361,
          0.533034563,
          -0.930761635,
          -0.442356884,
          0.195413,
          0.167946219,
          0.386996031,
          0.9284204,
          -0.459041953,
          0.370185971,
          -0.0714967251,
          0.288996339,
          -0.243267477,
          0.706822157,
          -0.6959393,
          -0.487511337,
          -0.8684143,
          -0.596112251,
          -0.5653507,
          0.46044898,
          0.631106138,
          0.0688192844,
          -0.214270473,
          0.379454017,
          0.396292448,
          0.0112228394,
          0.120807409,
          -0.07738817,
          -0.3162682,
          0.964601755,
          0.5938599,
          -0.0270681977,
          0.196280718,
          -0.533544,
          0.05699551,
          -0.8387622,
          -0.19864428,
          0.156624079,
          0.00265169144,
          0.401003718,
          0.8977077,
          -0.605841756,
          -0.195798516,
          0.423299551,
          0.513602734,
          -0.857366741,
          0.8381071,
          -0.0356395245,
          0.282295942,
          -0.7330296,
          0.565532565,
          0.00724434853,
          -0.3537066,
          -0.46181953,
          -0.0296666622,
          -0.9557711
        ],
        "RowCount": 51,
        "ColumnCount": 16
      },
      "ColumnCount": 16,
      "RowCount": 51
    },
    {
      "Values": [
        0.44275105,
        -0.115943313,
        0.720417261,
        0.818995833,
        0.5034765,
        0.349342942,
        0.7746998,
        0.403228045,
        0.495772719,
        -0.170474529,
        0.6531526,
        -0.85612756,
        0.240832329,
        -0.246972144,
        -0.67167604,
        -0.9427739,
        -0.8066863,
        0.4311694,
        0.108318925,
        0.9057481,
        0.9406185,
        -0.7591146,
        0.44217813,
        0.33033514,
        -0.0634886,
        -0.418937743,
        -0.5251272,
        0.935634136,
        -0.650768042,
        0.598978162,
        0.796808839,
        -0.651747048,
        -0.387115479,
        -0.6945542,
        0.337575436,
        -0.347614765,
        0.371575356,
        0.38001895,
        -0.1689282,
        -0.401958227,
        -0.09602612,
        0.4269675,
        -0.882268131,
        -0.3835488,
        0.6825545,
        -0.170676351,
        -0.877614,
        -0.91574657,
        0.126881957,
        0.147933,
        -0.404397547,
        0.5758965,
        0.04639566,
        -0.5048375,
        -0.162209511,
        -0.369096041,
        -0.5091441,
        -0.918205738,
        0.4533776,
        -0.797174931,
        0.366060019,
        -0.8475436,
        0.6764064,
        -0.499605775,
        -0.309986472,
        -0.410454452,
        -0.68531394,
        -0.832279563,
        -0.124992192,
        0.256031036,
        -0.6435969,
        -0.462821066,
        -0.8851346,
        -0.2414822,
        0.3293004,
        0.8085686,
        -0.144350171,
        -0.7295853,
        -0.216833174,
        0.6044595,
        0.944213152,
        -0.258724451,
        0.855146646,
        0.388728976,
        0.0361610651,
        -0.02773428,
        0.09397185,
        0.511989951,
        0.819394946,
        -0.6469674,
        -0.252408028,
        -0.591275,
        -0.466572464,
        -0.0582086444,
        0.108996868,
        -0.2998368,
        -0.0715615153,
        0.6436595,
        0.7863692,
        -0.268265426,
        -0.63463074,
        0.234369159,
        0.8185128,
        -0.9795152,
        0.209750891,
        0.7918135,
        -0.9855842,
        0.1904198,
        0.8879056,
        0.7617097,
        -0.573736548,
        -0.18053633,
        -0.9443837,
        -0.06438005,
        0.425137877,
        0.9108479,
        0.254844785,
        0.5516238,
        0.5285708,
        0.231527925,
        0.848150253,
        -0.574654758,
        0.378903627,
        -0.397490621,
        -0.540367365,
        -0.7603717,
        -0.7111918,
        0.5950705,
        -0.501659632,
        -0.389492869,
        -0.173602819,
        -0.873377562,
        0.773624539,
        -0.587208867,
        -0.2635324,
        0.595463753,
        0.722434044,
        -0.492634118,
        -0.4878574,
        0.53813684,
        -0.287810743,
        0.005956888,
        0.122528434,
        -0.558366954,
        -0.976602137,
        0.7631415,
        0.916154861,
        0.403723121,
        0.76405704,
        -0.150545478,
        0.4875275,
        -0.339260042,
        0.292883039,
        -0.287903666,
        0.460959673,
        0.3307215,
        0.175584316,
        0.7735717,
        0.955771446,
        -0.217936814
      ],
      "Storage": {
        "Data": [
          0.44275105,
          -0.115943313,
          0.720417261,
          0.818995833,
          0.5034765,
          0.349342942,
          0.7746998,
          0.403228045,
          0.495772719,
          -0.170474529,
          0.6531526,
          -0.85612756,
          0.240832329,
          -0.246972144,
          -0.67167604,
          -0.9427739,
          -0.8066863,
          0.4311694,
          0.108318925,
          0.9057481,
          0.9406185,
          -0.7591146,
          0.44217813,
          0.33033514,
          -0.0634886,
          -0.418937743,
          -0.5251272,
          0.935634136,
          -0.650768042,
          0.598978162,
          0.796808839,
          -0.651747048,
          -0.387115479,
          -0.6945542,
          0.337575436,
          -0.347614765,
          0.371575356,
          0.38001895,
          -0.1689282,
          -0.401958227,
          -0.09602612,
          0.4269675,
          -0.882268131,
          -0.3835488,
          0.6825545,
          -0.170676351,
          -0.877614,
          -0.91574657,
          0.126881957,
          0.147933,
          -0.404397547,
          0.5758965,
          0.04639566,
          -0.5048375,
          -0.162209511,
          -0.369096041,
          -0.5091441,
          -0.918205738,
          0.4533776,
          -0.797174931,
          0.366060019,
          -0.8475436,
          0.6764064,
          -0.499605775,
          -0.309986472,
          -0.410454452,
          -0.68531394,
          -0.832279563,
          -0.124992192,
          0.256031036,
          -0.6435969,
          -0.462821066,
          -0.8851346,
          -0.2414822,
          0.3293004,
          0.8085686,
          -0.144350171,
          -0.7295853,
          -0.216833174,
          0.6044595,
          0.944213152,
          -0.258724451,
          0.855146646,
          0.388728976,
          0.0361610651,
          -0.02773428,
          0.09397185,
          0.511989951,
          0.819394946,
          -0.6469674,
          -0.252408028,
          -0.591275,
          -0.466572464,
          -0.0582086444,
          0.108996868,
          -0.2998368,
          -0.0715615153,
          0.6436595,
          0.7863692,
          -0.268265426,
          -0.63463074,
          0.234369159,
          0.8185128,
          -0.9795152,
          0.209750891,
          0.7918135,
          -0.9855842,
          0.1904198,
          0.8879056,
          0.7617097,
          -0.573736548,
          -0.18053633,
          -0.9443837,
          -0.06438005,
          0.425137877,
          0.9108479,
          0.254844785,
          0.5516238,
          0.5285708,
          0.231527925,
          0.848150253,
          -0.574654758,
          0.378903627,
          -0.397490621,
          -0.540367365,
          -0.7603717,
          -0.7111918,
          0.5950705,
          -0.501659632,
          -0.389492869,
          -0.173602819,
          -0.873377562,
          0.773624539,
          -0.587208867,
          -0.2635324,
          0.595463753,
          0.722434044,
          -0.492634118,
          -0.4878574,
          0.53813684,
          -0.287810743,
          0.005956888,
          0.122528434,
          -0.558366954,
          -0.976602137,
          0.7631415,
          0.916154861,
          0.403723121,
          0.76405704,
          -0.150545478,
          0.4875275,
          -0.339260042,
          0.292883039,
          -0.287903666,
          0.460959673,
          0.3307215,
          0.175584316,
          0.7735717,
          0.955771446,
          -0.217936814
        ],
        "RowCount": 16,
        "ColumnCount": 10
      },
      "ColumnCount": 10,
      "RowCount": 16
    },
    {
      "Values": [
        -0.6492747,
        -0.6793118,
        0.264374018,
        0.7845223,
        -0.8561111,
        0.182195663,
        0.8104719,
        -0.1473679,
        0.3676808,
        -0.718441963,
        0.907447338,
        -0.918782532,
        0.154207587,
        -0.114222527,
        0.60632,
        -0.3918547,
        -0.672061145,
        -0.778614759,
        0.5274087,
        -0.317440748
      ],
      "Storage": {
        "Data": [
          -0.6492747,
          -0.6793118,
          0.264374018,
          0.7845223,
          -0.8561111,
          0.182195663,
          0.8104719,
          -0.1473679,
          0.3676808,
          -0.718441963,
          0.907447338,
          -0.918782532,
          0.154207587,
          -0.114222527,
          0.60632,
          -0.3918547,
          -0.672061145,
          -0.778614759,
          0.5274087,
          -0.317440748
        ],
        "RowCount": 10,
        "ColumnCount": 2
      },
      "ColumnCount": 2,
      "RowCount": 10
    }
  ],
  "biases": [
    {
      "Values": [
        0.147542834,
        -0.372285724,
        -0.870092869,
        -0.682307,
        0.7856138,
        0.272259682,
        0.9935858,
        0.5978339,
        -0.511872768,
        0.6637254,
        -0.226856828,
        -0.116835,
        0.243061423,
        -0.521979332,
        0.335189551,
        0.371814936
      ],
      "Storage": {
        "Data": [
          0.147542834,
          -0.372285724,
          -0.870092869,
          -0.682307,
          0.7856138,
          0.272259682,
          0.9935858,
          0.5978339,
          -0.511872768,
          0.6637254,
          -0.226856828,
          -0.116835,
          0.243061423,
          -0.521979332,
          0.335189551,
          0.371814936
        ],
        "RowCount": 1,
        "ColumnCount": 16
      },
      "ColumnCount": 16,
      "RowCount": 1
    },
    {
      "Values": [
        0.08551276,
        -0.32207334,
        0.261568516,
        0.6873169,
        0.732267141,
        0.674360752,
        -0.789821863,
        -0.18930757,
        -0.413747668,
        -0.9957118
      ],
      "Storage": {
        "Data": [
          0.08551276,
          -0.32207334,
          0.261568516,
          0.6873169,
          0.732267141,
          0.674360752,
          -0.789821863,
          -0.18930757,
          -0.413747668,
          -0.9957118
        ],
        "RowCount": 1,
        "ColumnCount": 10
      },
      "ColumnCount": 10,
      "RowCount": 1
    },
    {
      "Values": [
        0.7861676,
        0.85951066
      ],
      "Storage": {
        "Data": [
          0.7861676,
          0.85951066
        ],
        "RowCount": 1,
        "ColumnCount": 2
      },
      "ColumnCount": 2,
      "RowCount": 1
    }
  ],
  "fitness": 6170.533,
  "activationType": 1,
  "inputLayerArray": {},
  "outputLayerArray": {},
  "hiddenLayerArray": [
    {},
    {}
  ],
  "weightsLayerArray": [
    {},
    {},
    {}
  ],
  "biasesLayerArray": [
    {},
    {},
    {}
  ]
}