{
  "fitness": 130858.125,
  "inputLayerDimensions": 51,
  "outputLayerDimensions": 2,
  "hiddenLayers": [
    [
      -0.7947267,
      -0.9971908,
      0.4893047,
      0.999011457,
      0.975440741,
      0.800139,
      0.9936932,
      0.9997561,
      0.90686965,
      -0.491512626,
      0.7837762,
      -0.975912035,
      -0.386735767,
      -0.0556244962,
      -0.9999239,
      0.9979933
    ],
    [
      0.124796,
      -0.987640738,
      0.990345359,
      -0.941751659,
      0.5120043,
      0.933969259,
      -0.7820944,
      -0.6951759,
      -0.641063035,
      0.4200498
    ]
  ],
  "weights": [
    [
      [
        -0.363917053,
        -0.8575676,
        -0.4944561,
        -0.5674119,
        0.07121217,
        -0.902288437,
        0.488447547,
        0.718831658,
        -0.116994977,
        0.745305657,
        -0.101709187,
        0.267205,
        0.685619354,
        -0.202836454,
        0.65769887,
        0.459080577
      ],
      [
        0.24386692,
        0.32497108,
        -0.306038618,
        0.436022758,
        -0.626350641,
        0.8857877,
        0.611891031,
        -0.845919967,
        0.1885103,
        0.547039032,
        -0.731434941,
        0.2920959,
        -0.800248265,
        0.402641416,
        -0.2242325,
        0.01996839
      ],
      [
        -0.2183615,
        -0.855400443,
        -0.21145016,
        0.249446869,
        -0.8575956,
        0.6194807,
        -0.499707758,
        -0.936091661,
        0.108864069,
        -0.888309658,
        0.0373795033,
        -0.234526873,
        -0.789188266,
        -0.0508516431,
        -0.399229169,
        0.922903657
      ],
      [
        -0.370288134,
        -0.7164752,
        0.931955934,
        -0.527382135,
        0.8432987,
        -0.05527562,
        -0.7190039,
        0.8937069,
        0.183257461,
        0.00125730038,
        -0.561309457,
        0.616648555,
        -0.6830793,
        -0.472429931,
        -0.7753294,
        0.324248552
      ],
      [
        -0.203366816,
        0.1617949,
        -0.6976897,
        -0.268460631,
        -0.7169498,
        -0.735769033,
        -0.5123563,
        -0.175491452,
        -0.686162,
        0.198182344,
        -0.6410763,
        0.80145967,
        0.3902452,
        0.9804028,
        0.4278165,
        0.2564515
      ],
      [
        -0.650218,
        0.2442187,
        -0.4062866,
        -0.3453666,
        -0.956866264,
        -0.006890714,
        -0.426255524,
        -0.244612634,
        0.873953462,
        0.275860429,
        -0.4359678,
        0.485743165,
        0.372944117,
        0.7549156,
        -0.0188189149,
        -0.665698051
      ],
      [
        0.875304937,
        -0.8333696,
        0.159516692,
        -0.888757348,
        -0.244615436,
        0.7286042,
        -0.541703761,
        0.3015046,
        0.3754394,
        0.124340892,
        0.136569977,
        0.643125534,
        0.5514592,
        0.03510654,
        0.7345736,
        -0.212000847
      ],
      [
        -0.8463497,
        0.953453541,
        0.204992414,
        0.917530656,
        -0.837239742,
        0.362725973,
        0.133328438,
        -0.3165608,
        0.416334152,
        -0.528903842,
        0.5444604,
        0.308785319,
        0.199213624,
        0.7087815,
        -0.579811633,
        -0.20382452
      ],
      [
        -0.801318169,
        0.335034132,
        -0.5263343,
        -0.5631367,
        0.9944482,
        -0.4950592,
        0.663172245,
        -0.413087547,
        -0.427304864,
        -0.9806011,
        -0.5742315,
        -0.322475016,
        -0.9340886,
        0.710775256,
        0.470843315,
        -0.7749766
      ],
      [
        0.736988664,
        0.243185163,
        -0.8466906,
        -0.486002266,
        0.555905461,
        -0.6542647,
        -0.650666058,
        -0.431213558,
        -0.0726521,
        0.531074643,
        0.6234715,
        0.421592116,
        -0.8492421,
        0.4133153,
        0.64930594,
        -0.200621784
      ],
      [
        -0.341615736,
        -0.998541534,
        0.346877456,
        0.0378769636,
        0.9647809,
        0.07019079,
        -0.499155879,
        -0.3792836,
        -0.7478703,
        -0.261343539,
        -0.7424474,
        0.0473794937,
        0.925176859,
        -0.9243427,
        0.5571213,
        -0.7947901
      ],
      [
        -0.32398963,
        0.5574093,
        -0.3640864,
        -0.9426859,
        -0.9216179,
        -0.874183,
        -0.914566755,
        -0.7303771,
        -0.777736962,
        -0.6837918,
        0.251482129,
        0.509418845,
        0.9542688,
        -0.120170414,
        0.901290059,
        0.517458439
      ],
      [
        0.7467452,
        -0.307439268,
        -0.6361197,
        -0.407341,
        0.212058067,
        -0.3742599,
        -0.8483404,
        0.447673082,
        -0.788821757,
        0.7567018,
        -0.7604321,
        -0.295903563,
        0.180726528,
        0.360535741,
        -0.300304055,
        -0.6919129
      ],
      [
        -0.3537227,
        0.4425372,
        0.770686865,
        0.5961884,
        0.377629757,
        0.5701679,
        0.7362876,
        -0.07404661,
        0.8990897,
        0.413649082,
        -0.9701414,
        0.84803617,
        0.2608415,
        0.135104656,
        0.209223747,
        -0.9016301
      ],
      [
        -0.8685143,
        -0.877248,
        -0.780339062,
        0.4980322,
        -0.5787022,
        -0.167039216,
        -0.184537351,
        0.934200048,
        -0.7719586,
        -0.1034897,
        -0.7275101,
        -0.894789159,
        -0.8844892,
        -0.486558139,
        -0.2805965,
        -0.599300861
      ],
      [
        -0.179297864,
        -0.15408057,
        -0.588059843,
        -0.439362466,
        0.5860293,
        0.858714,
        -0.9321035,
        -0.8335463,
        -0.778364956,
        -0.9365792,
        0.8851354,
        0.1626252,
        -0.247690856,
        -0.5888386,
        -0.9512963,
        -0.8182785
      ],
      [
        0.800528049,
        -0.625848353,
        -0.106175959,
        0.128085136,
        0.23961246,
        0.7495779,
        -0.5623832,
        0.332724929,
        -0.6259954,
        0.778281331,
        0.168395519,
        0.161956191,
        -0.9164635,
        -0.871570051,
        0.9435619,
        -0.07689357
      ],
      [
        0.384657741,
        0.47439003,
        -0.9868893,
        -0.7188828,
        -0.808509231,
        -0.7882861,
        0.5443629,
        0.9941168,
        0.00208282471,
        0.366180062,
        0.287731051,
        0.397627831,
        -0.558851242,
        -0.5600143,
        -0.837640345,
        -0.5050745
      ],
      [
        0.312953353,
        -0.4511181,
        0.06867015,
        0.3399552,
        0.170899391,
        -0.8683059,
        0.569631338,
        0.7887994,
        0.9194969,
        -0.474578679,
        -0.2627462,
        -0.648297548,
        -0.707318544,
        -0.218518555,
        0.471523285,
        0.570540547
      ],
      [
        -0.5730868,
        -0.6703663,
        0.7578273,
        0.9195707,
        -0.9158758,
        0.595157266,
        -0.925991,
        -0.543204963,
        0.4279567,
        -0.5938132,
        -0.141328812,
        0.9284302,
        -0.370911539,
        -0.187517345,
        0.8672906,
        -0.332158446
      ],
      [
        0.920963168,
        -0.62741375,
        -0.2227034,
        -0.999232233,
        -0.6067333,
        -0.464255154,
        0.5396944,
        -0.193495631,
        -0.567440867,
        0.47589922,
        0.457295418,
        0.400115371,
        -0.365358055,
        -0.783638656,
        -0.131664455,
        -0.94068706
      ],
      [
        0.254202843,
        -0.7539377,
        -0.7025858,
        0.7101996,
        0.155695677,
        0.2680304,
        0.478916526,
        -0.3991838,
        0.6564436,
        0.256503582,
        -0.0367290378,
        -0.0665552,
        -0.2891537,
        -0.840014637,
        -0.0382928848,
        0.6110289
      ],
      [
        -0.307967782,
        -0.8526177,
        0.7464901,
        -0.505315542,
        -0.513086438,
        -0.04150623,
        0.7675079,
        0.130087376,
        0.4728799,
        -0.405152738,
        -0.292155981,
        -0.872142732,
        -0.4997341,
        -0.33987087,
        -0.863953,
        0.350031734
      ],
      [
        0.304413557,
        -0.19410789,
        -0.5553632,
        -0.291832447,
        -0.7605322,
        0.8176546,
        -0.00284796953,
        0.5498644,
        0.7508813,
        -0.6381353,
        0.09916985,
        0.347275257,
        0.036550045,
        -0.380401731,
        0.8374169,
        0.440758348
      ],
      [
        0.5762298,
        -0.804618835,
        0.791144,
        -0.7638447,
        -0.283526778,
        0.408382416,
        0.0836619139,
        0.3548689,
        0.499150038,
        -0.4932236,
        0.9232478,
        0.7207997,
        0.290441751,
        -0.846423268,
        -0.0796684,
        0.9698092
      ],
      [
        -0.209945917,
        -0.6536056,
        -0.1726917,
        -0.9044,
        0.5424398,
        -0.56728673,
        -0.3731436,
        -0.125077188,
        0.1145308,
        -0.438561141,
        0.0155816078,
        -0.5384574,
        0.528351068,
        -0.6958737,
        -0.592980146,
        -0.421661556
      ],
      [
        -0.0308750272,
        0.6945188,
        -0.9072745,
        -0.06592083,
        0.887827635,
        0.23865509,
        0.57458055,
        0.181095243,
        -0.09730154,
        -0.40571475,
        0.857094765,
        0.9881247,
        -0.442024,
        0.113508344,
        -0.4133448,
        0.355331063
      ],
      [
        -0.9766313,
        0.339435816,
        0.0898278952,
        0.464838147,
        0.5471388,
        -0.357545257,
        0.6593224,
        -0.174395025,
        0.4291575,
        0.434895873,
        0.14970839,
        -0.6448951,
        0.442569852,
        -0.141700327,
        -0.931815565,
        0.451311827
      ],
      [
        0.8735901,
        -0.772635758,
        -0.4890799,
        0.276028156,
        0.00245976448,
        0.436666131,
        0.82304883,
        0.7220342,
        0.08741331,
        -0.7067445,
        -0.4922806,
        0.8930408,
        0.3992715,
        0.0114171505,
        0.6343808,
        -0.211414754
      ],
      [
        0.3755902,
        -0.1035288,
        -0.3480078,
        0.9905964,
        0.383523583,
        0.5212611,
        -0.09641588,
        0.9155296,
        0.652834654,
        0.7939327,
        -0.885603,
        -0.92021656,
        -0.826957464,
        0.463686824,
        -0.6601509,
        0.605451465
      ],
      [
        -0.852209747,
        0.0152686834,
        0.497915626,
        0.7958727,
        -0.589869738,
        0.5301515,
        -0.258661866,
        0.565562963,
        -0.319465041,
        0.404177785,
        -0.513632655,
        -0.8805034,
        0.4234736,
        0.236329556,
        -0.08446872,
        0.5367547
      ],
      [
        0.117118,
        -0.5283792,
        0.9215567,
        -0.151887953,
        -0.230885088,
        0.4097675,
        -0.8578374,
        -0.818532467,
        -0.699718356,
        0.5556679,
        -0.526431441,
        -0.220693529,
        0.6763288,
        -0.7451004,
        -0.7073425,
        0.8218107
      ],
      [
        -0.188287318,
        -0.600337744,
        0.9674952,
        0.499456167,
        0.266288638,
        0.586469769,
        -0.355944753,
        0.4563787,
        0.07471824,
        -0.117228568,
        0.9191958,
        -0.119059563,
        -0.95246464,
        -0.210800648,
        0.09551263,
        0.2247634
      ],
      [
        -0.314886272,
        -0.0567199,
        0.41335547,
        -0.552239,
        0.8058369,
        0.532086253,
        0.6134163,
        -0.14088726,
        0.8427987,
        0.615963,
        0.09641302,
        -0.0901142955,
        -0.3820988,
        0.5929971,
        -0.764427543,
        -0.206377208
      ],
      [
        0.482008576,
        0.06414056,
        0.05919552,
        0.03942287,
        0.9276775,
        -0.5784989,
        0.06446135,
        -0.5570012,
        -0.9227325,
        -0.5650804,
        0.0155143738,
        -0.462151825,
        0.6970675,
        0.110974312,
        -0.06666559,
        0.153987765
      ],
      [
        0.625024557,
        0.07162726,
        -0.06827843,
        0.124523878,
        -0.9314212,
        -0.5580248,
        0.7754344,
        0.856934667,
        0.00984025,
        -0.4095853,
        -0.2861777,
        -0.123704314,
        -0.302543938,
        0.5669751,
        -0.7386842,
        0.704005957
      ],
      [
        0.163589835,
        -0.0351825356,
        0.1794362,
        -0.569818735,
        0.9925356,
        0.369740248,
        0.051426053,
        0.628306746,
        -0.5936035,
        -0.185754716,
        0.7630029,
        -0.858547,
        -0.332144141,
        0.149868608,
        -0.6520706,
        0.617522
      ],
      [
        0.2560866,
        -0.676800251,
        0.76738286,
        0.5605172,
        -0.629561663,
        -0.412223816,
        0.220373988,
        0.656903,
        -0.8774338,
        0.9996656,
        0.40704596,
        0.5029806,
        -0.9991333,
        -0.245022357,
        -0.389268279,
        -0.7109698
      ],
      [
        -0.8279887,
        -0.933603942,
        -0.762076855,
        0.8541709,
        0.465499043,
        -0.0421647429,
        -0.5997385,
        0.922139049,
        0.7725879,
        -0.07550913,
        -0.09681612,
        -0.192348361,
        -0.0672881,
        0.627892,
        -0.7356031,
        -0.255044043
      ],
      [
        -0.104642868,
        -0.254822552,
        -0.579403162,
        0.325171232,
        -0.3194989,
        -0.3377508,
        -0.0104544163,
        -0.8272375,
        0.66085887,
        -0.681935132,
        0.7074715,
        -0.757509232,
        0.117671132,
        -0.41179055,
        0.08508313,
        0.942105055
      ],
      [
        -0.8072666,
        0.2218467,
        0.870186448,
        0.879655,
        -0.266605318,
        -0.0278089643,
        0.015801549,
        0.358171821,
        -0.441005647,
        -0.0248745084,
        -0.101316035,
        0.5725337,
        -0.2795211,
        0.454488039,
        0.00668907166,
        0.1054436
      ],
      [
        0.318621635,
        0.9243866,
        -0.4650498,
        0.175071,
        0.7806648,
        -0.177794278,
        -0.1342842,
        0.6464499,
        0.6897768,
        -0.913101435,
        0.411378026,
        -0.000219881535,
        0.194460511,
        -0.435700536,
        -0.05802995,
        -0.283207059
      ],
      [
        0.155709267,
        -0.8275664,
        -0.159817576,
        0.75958693,
        0.6300814,
        -0.9758637,
        0.385711074,
        0.884621859,
        0.985287547,
        -0.5931703,
        -0.006144285,
        0.0364546776,
        0.102160573,
        -0.450173736,
        -0.6519716,
        -0.147807
      ],
      [
        -0.7263358,
        0.931941867,
        -0.620486856,
        -0.0554285645,
        0.152771,
        0.4763322,
        0.217992067,
        -0.351378143,
        -0.566442847,
        -0.447753549,
        -0.320645571,
        -0.825413764,
        0.831963062,
        -0.350231528,
        -0.5578158,
        0.8645506
      ],
      [
        -0.594568849,
        -0.293039143,
        0.2589053,
        -0.0228757262,
        0.145095587,
        0.112250686,
        0.660164237,
        0.325468063,
        0.508133054,
        -0.8595615,
        -0.87695086,
        0.461033463,
        -0.933649361,
        0.273717284,
        -0.5785892,
        0.2041415
      ],
      [
        0.474118948,
        -0.8149526,
        -0.1920088,
        0.385669,
        0.182522416,
        0.7484437,
        0.8380898,
        -0.349772871,
        -0.5750468,
        -0.56082803,
        0.76605916,
        -0.296656072,
        -0.518891156,
        0.0612317324,
        0.969254136,
        -0.907706261
      ],
      [
        0.457257867,
        -0.118828058,
        -0.7934678,
        0.7667595,
        0.4250816,
        0.8218554,
        -0.445866644,
        0.9077674,
        0.790083766,
        -0.08019179,
        -0.876610935,
        -0.00325113535,
        -0.4216019,
        -0.240256727,
        0.306729555,
        -0.739521146
      ],
      [
        -0.447586656,
        -0.174858689,
        0.6969702,
        -0.861653,
        0.0133872032,
        0.686571,
        -0.342629373,
        -0.476194322,
        0.421379566,
        0.6848371,
        0.909052,
        -0.7852497,
        0.143337011,
        0.522704244,
        -0.116139352,
        -0.5161316
      ],
      [
        -0.5333961,
        -0.09560919,
        -0.388382554,
        0.279907346,
        -0.0341768265,
        -0.228764236,
        0.770826936,
        -0.05631888,
        -0.29443258,
        0.382806778,
        0.440645456,
        0.3513683,
        0.6257899,
        0.014521122,
        -0.235242546,
        0.9640969
      ],
      [
        -0.6540956,
        0.456538677,
        -0.394878745,
        0.455558062,
        -0.100128531,
        0.6248046,
        0.7264972,
        0.8782915,
        0.290303469,
        -0.886975467,
        0.915789962,
        -0.360947728,
        -0.5913372,
        0.981883764,
        -0.803624451,
        0.4514594
      ],
      [
        0.244660735,
        0.850831747,
        -0.7614105,
        0.5270667,
        0.993247032,
        -0.702935338,
        0.06887531,
        0.240680933,
        -0.275653958,
        0.73815155,
        -0.6091924,
        -0.494179428,
        0.138976336,
        -0.601460338,
        -0.146379888,
        -0.350884855
      ]
    ],
    [
      [
        -0.25914067,
        0.944290757,
        0.176613331,
        -0.151398778,
        -0.8129852,
        -0.0639464259,
        0.601779,
        0.528880239,
        0.7562591,
        0.3813423
      ],
      [
        -0.6520308,
        -0.7926449,
        0.5589112,
        -0.10544008,
        -0.05291128,
        -0.13930881,
        0.4638965,
        0.5191785,
        0.770512938,
        -0.950729966
      ],
      [
        0.923936367,
        -0.178348541,
        0.8264661,
        0.928118348,
        0.396107078,
        0.9689466,
        -0.8957381,
        -0.211990714,
        0.7101314,
        -0.172290444
      ],
      [
        0.457835555,
        0.0520231724,
        0.826272368,
        -0.818326,
        -0.183894813,
        0.345769167,
        0.405986667,
        -0.08186102,
        0.493843317,
        -0.250500143
      ],
      [
        0.526641846,
        -0.8356297,
        -0.426736534,
        -0.05280924,
        -0.0785827041,
        0.858328,
        0.314605832,
        -0.352270424,
        -0.300338447,
        -0.2689103
      ],
      [
        -0.449265063,
        0.8155978,
        -0.0193288326,
        0.06535375,
        -0.187911689,
        -0.802818835,
        0.5551137,
        0.712836,
        0.382925868,
        0.149910688
      ],
      [
        -0.347225547,
        -0.7858907,
        0.0851918459,
        -0.845982,
        0.665434241,
        -0.855775535,
        -0.3561811,
        0.503597,
        -0.8967117,
        -0.3061332
      ],
      [
        -0.775036454,
        0.6590897,
        -0.10992372,
        -0.449221671,
        -0.344186246,
        0.202683687,
        -0.841871142,
        -0.511406362,
        -0.110257208,
        0.6160741
      ],
      [
        -0.2619177,
        -0.9607125,
        0.814655542,
        0.3077401,
        0.3261261,
        -0.7816371,
        0.7023262,
        -0.552827954,
        -0.6330036,
        0.161124587
      ],
      [
        0.2939608,
        0.130390525,
        0.8933164,
        0.8698602,
        0.163810611,
        -0.09432602,
        -0.868034244,
        -0.6654841,
        -0.4394518,
        -0.4011258
      ],
      [
        -0.862225831,
        -0.417769849,
        0.875216961,
        0.09834206,
        0.431650162,
        0.9024887,
        -0.8636358,
        -0.6397685,
        -0.420585275,
        -0.825868845
      ],
      [
        -0.3498819,
        0.9767927,
        -0.679379,
        0.2902001,
        -0.827845037,
        -0.7835431,
        -0.501139,
        -0.239940226,
        0.410238862,
        -0.7965293
      ],
      [
        0.5442203,
        0.449759841,
        -0.07697606,
        -0.8399067,
        -0.869140744,
        -0.120668709,
        -0.236934543,
        0.520993233,
        -0.07874763,
        -0.0705182552
      ],
      [
        -0.4712463,
        -0.9164246,
        0.496352077,
        0.349688768,
        -0.6886987,
        -0.416481018,
        -0.200870275,
        -0.127257884,
        -0.3068105,
        -0.893271565
      ],
      [
        -0.5407081,
        -0.554787755,
        0.290745258,
        0.218419909,
        0.5218165,
        -0.19264698,
        -0.8253371,
        -0.152739823,
        -0.871937752,
        0.9027729
      ],
      [
        -0.242490768,
        -0.7495862,
        0.947553039,
        0.683995366,
        -0.8242034,
        -0.691660762,
        -0.8622809,
        0.6115637,
        0.32652688,
        0.8754542
      ]
    ],
    [
      [
        0.18376255,
        -0.457050681
      ],
      [
        -0.595390439,
        -0.430363059
      ],
      [
        0.8781965,
        0.432817578
      ],
      [
        -0.6889821,
        -0.02846545
      ],
      [
        0.5456029,
        0.675591469
      ],
      [
        0.1848818,
        0.313873649
      ],
      [
        -0.965675056,
        0.402789474
      ],
      [
        0.3600787,
        -0.544016242
      ],
      [
        0.201788425,
        0.232284069
      ],
      [
        -0.6751757,
        -0.340836942
      ]
    ]
  ],
  "biases": [
    [
      [
        0.195379853,
        -0.6756191,
        0.255329579,
        -0.413150668,
        -0.787492752,
        -0.9996939,
        0.5497203,
        0.2107755,
        0.46021077,
        0.0920168161,
        0.7919004,
        0.933357954,
        0.8828473,
        -0.32076633,
        -0.08274782,
        0.352732867
      ]
    ],
    [
      [
        -0.06295574,
        0.25603506,
        0.286349267,
        -0.735254049,
        -0.613656044,
        0.759634733,
        -0.5881226,
        -0.08731282,
        0.5928695,
        -0.559303761
      ]
    ],
    [
      [
        0.782290936,
        -0.316794753
      ]
    ]
  ],
  "activationType": 1
}