{"fitness":0.0,"activationType":1,"inputLayerArray":{"dimensions":{"x":0,"y":0},"neurons":[0.0,0.0,0.0,0.0,0.0,0.0,0.0,0.0,0.0,0.0,0.0,0.0,0.0,0.0,0.0,0.0,0.0,0.0,0.0,0.0,0.0,0.0,0.0,0.0,0.0,0.0,0.0,0.0,0.0,0.0,0.0,0.0,0.0,0.0,0.0,0.0,0.0,0.0,0.0,0.0,0.0,0.0,0.0,0.0,0.0,0.0,0.0,0.0,0.0,0.0,0.0]},"outputLayerArray":{"dimensions":{"x":0,"y":0},"neurons":[0.0,0.0]},"hiddenLayerArray":[{"dimensions":{"x":0,"y":0},"neurons":[0.0,0.0,0.0,0.0,0.0,0.0,0.0,0.0,0.0,0.0,0.0,0.0,0.0,0.0,0.0,0.0]},{"dimensions":{"x":0,"y":0},"neurons":[0.0,0.0,0.0,0.0,0.0,0.0,0.0,0.0,0.0,0.0]}],"weightsLayerArray":[{"dimensions":{"x":51,"y":16},"neurons":[-0.2848202586174011,-0.061907410621643069,0.48721492290496828,0.001172780990600586,0.5577819347381592,-0.6964261531829834,-0.7435306310653687,-0.8621933460235596,-0.5235141515731812,0.172110915184021,0.5576690435409546,-0.44369828701019289,0.1981292963027954,0.580987811088562,-0.4442823529243469,-0.1764560341835022,-0.938619077205658,-0.3900461792945862,0.2537412643432617,0.23293673992156983,-0.8281002640724182,-0.998129665851593,0.7191958427429199,0.4887760877609253,0.021769165992736818,0.1727285385131836,-0.3936270475387573,-0.2647823095321655,-0.735467791557312,0.7349157333374023,-0.8310459852218628,0.5443820953369141,-0.8365956544876099,0.8252995014190674,0.06487429141998291,0.5411908626556397,-0.473044216632843,0.6605427265167236,-0.9957631230354309,-0.8894486427307129,-0.3184207081794739,0.6300618648529053,-0.12388986349105835,-0.40891122817993166,0.7068983316421509,-0.30042433738708498,-0.21504157781600953,-0.6268782615661621,0.8660372495651245,0.12027585506439209,0.816353440284729,-0.8522352576255798,-0.5818209648132324,-0.025055348873138429,0.8296926021575928,0.5207849740982056,0.14668488502502442,0.7230308055877686,0.5036736726760864,-0.25495070219039919,0.2876685857772827,-0.698946475982666,0.353867769241333,0.5522888898849487,-0.4172324538230896,-0.7681781053543091,-0.6560165286064148,-0.9488449692726135,0.41764509677886965,-0.08293557167053223,0.14629995822906495,-0.21707946062088014,-0.10491621494293213,0.23440027236938477,0.7150206565856934,-0.31550902128219607,-0.6653401851654053,0.8640927076339722,0.8687816858291626,-0.3504035472869873,-0.39014458656311037,0.7864298820495606,-0.9996439814567566,-0.6507110595703125,-0.5216667056083679,0.4411855936050415,0.3616746664047241,0.6490130424499512,-0.6771767139434815,-0.08417385816574097,-0.02238011360168457,-0.9721881747245789,-0.04547959566116333,-0.701869010925293,0.39800238609313967,-0.16516554355621339,-0.03464430570602417,0.6972310543060303,-0.17410558462142945,-0.07288920879364014,0.027861356735229493,-0.014159858226776123,0.6294659376144409,0.1312624216079712,-0.34491628408432009,-0.29789209365844729,-0.5580049753189087,0.711938738822937,0.14100158214569093,-0.45682579278945925,-0.334922730922699,-0.6145941615104675,-0.8733082413673401,0.08762705326080322,-0.29757702350616457,-0.9462147355079651,0.31317365169525149,-0.091888427734375,0.16342401504516602,0.4867452383041382,0.9202938079833984,-0.8521100878715515,-0.5549681186676025,-0.10649394989013672,-0.5954334735870361,0.4951362609863281,0.6838091611862183,0.7705249786376953,0.44527530670166018,-0.8901507258415222,-0.989695131778717,-0.5897351503372192,-0.6253358125686646,0.7823535203933716,-0.9982664585113525,0.7774355411529541,-0.48385417461395266,-0.22112280130386353,0.4830111265182495,0.9904619455337524,0.6386827230453491,-0.21101266145706178,0.0009474754333496094,-0.5103853940963745,-0.45484715700149538,-0.2124934196472168,-0.8667216300964356,0.407861590385437,-0.22180026769638062,-0.6003122925758362,-0.8721275329589844,-0.16492480039596559,0.8189033269882202,0.49787700176239016,-0.19071358442306519,0.4996119737625122,-0.7856941223144531,0.6136026382446289,-0.46379512548446658,0.546471118927002,0.9572548866271973,-0.3921130895614624,0.7421931028366089,0.8719288110733032,-0.2931101322174072,0.555982232093811,-0.09241026639938355,0.26041722297668459,-0.2321498990058899,0.8644177913665772,0.41437625885009768,0.4079115390777588,-0.636859655380249,-0.9393861293792725,0.906359076499939,-0.6433262825012207,-0.7888875007629395,0.6640505790710449,-0.17027878761291505,-0.4774720072746277,0.07559645175933838,-0.5420713424682617,0.06024825572967529,0.30134057998657229,0.4581022262573242,0.9759156703948975,0.49357080459594729,0.156030535697937,-0.2786661386489868,-0.836725652217865,-0.525862455368042,-0.3161264657974243,0.09901273250579834,0.5454953908920288,0.19460618495941163,0.972382664680481,-0.18115532398223878,-0.05964082479476929,0.44197237491607668,0.9761757850646973,0.7627882957458496,-0.11673647165298462,-0.17853564023971559,-0.8017535209655762,0.2403191328048706,-0.819790244102478,-0.12562870979309083,0.5497820377349854,0.759117841720581,0.7050080299377441,0.9106482267379761,-0.7520826458930969,0.2651251554489136,-0.29250407218933108,0.7308233976364136,-0.5206456184387207,0.41817402839660647,-0.36151742935180666,-0.05149954557418823,0.25840282440185549,0.9564828872680664,0.20429635047912599,0.2890082597732544,-0.23862838745117188,0.5928654670715332,0.3654593229293823,0.8486620187759399,0.6622353792190552,-0.7158293724060059,0.9663914442062378,0.5528366565704346,-0.2071661353111267,0.3805420398712158,-0.6509498357772827,-0.042437851428985599,-0.751177191734314,-0.015486061573028565,0.3850078582763672,-0.8853948712348938,0.16380417346954347,-0.6869231462478638,-0.36619752645492556,0.01378631591796875,-0.7456414699554443,0.5329214334487915,0.21496140956878663,-0.3323320150375366,-0.611477792263031,-0.3190394639968872,0.16414499282836915,-0.2912048101425171,0.2581017017364502,0.06834602355957031,0.981471061706543,0.14421236515045167,0.6146301031112671,0.26080238819122317,-0.0832597017288208,0.8975049257278442,0.23285555839538575,-0.8399867415428162,-0.544348418712616,0.7276850938796997,-0.9920026659965515,-0.9479701519012451,0.39859437942504885,-0.22544008493423463,0.36808812618255618,0.9009075164794922,-0.5625760555267334,-0.12078416347503662,0.6242947578430176,-0.1458883285522461,0.9701714515686035,-0.530580997467041,0.9554414749145508,-0.86655592918396,-0.41141533851623537,-0.9939332604408264,0.5977591276168823,-0.3453211784362793,-0.6740002036094666,0.4586210250854492,0.6594650745391846,0.3313940763473511,-0.15173310041427613,0.13588154315948487,-0.7072440385818481,0.7937312126159668,0.7027316093444824,-0.29650217294692995,0.7928910255432129,-0.3276551365852356,0.5700376033782959,-0.14517927169799806,0.06622755527496338,0.9933182001113892,-0.08499681949615479,0.5714750289916992,-0.5458306670188904,-0.025016605854034425,-0.8440953493118286,0.9792710542678833,0.8604346513748169,0.740561842918396,0.14004814624786378,0.593714714050293,-0.20495128631591798,-0.6023857593536377,0.7814854383468628,-0.2687181234359741,-0.3142731189727783,0.49427592754364016,0.46285486221313479,0.3859825134277344,0.23482847213745118,-0.4389503002166748,-0.5335521697998047,0.6291778087615967,0.014567136764526368,0.8518338203430176,0.6030676364898682,-0.5979509949684143,-0.2383328676223755,0.9522515535354614,-0.42162322998046877,0.5361937284469605,-0.6723039150238037,-0.584108293056488,0.2510145902633667,-0.4111422896385193,-0.25182461738586428,-0.7692590951919556,-0.8787515163421631,0.5373286008834839,-0.8461517095565796,0.19712674617767335,0.3006448745727539,-0.7397658228874207,-0.8735777735710144,0.07308828830718994,-0.408893883228302,-0.49023115634918215,-0.15070629119873048,0.6085846424102783,0.8967760801315308,0.6498773097991943,0.5765655040740967,0.2179960012435913,-0.6195246577262878,0.02448296546936035,-0.3504304885864258,0.30718672275543215,-0.20707756280899049,-0.7102311849594116,-0.8616772294044495,-0.7208734750747681,0.6179443597793579,-0.3828703761100769,-0.5946258306503296,0.43017780780792239,-0.07543003559112549,0.17193102836608888,0.2326347827911377,0.66253662109375,-0.07326012849807739,0.5207784175872803,0.5890083312988281,0.03859376907348633,-0.9869175553321838,0.8939785957336426,0.8791193962097168,-0.21373343467712403,0.267592191696167,-0.4252534508705139,0.5525397062301636,0.5231977701187134,-0.010447382926940918,0.9402096271514893,0.20549023151397706,0.6571511030197144,0.4299246072769165,0.9639366865158081,0.4611339569091797,-0.22109943628311158,0.10435807704925537,0.6985523700714111,0.9232596158981323,0.3878716230392456,-0.033852577209472659,-0.6854943037033081,-0.03594863414764404,-0.6087191104888916,0.4796565771102905,-0.2332039475440979,0.7325280904769898,-0.18852609395980836,-0.12488788366317749,-0.3926010727882385,0.9138799905776978,0.9368627071380615,0.6813063621520996,-0.2335679531097412,0.1736365556716919,0.08001828193664551,0.9517748355865479,-0.5261319875717163,0.6813089847564697,-0.9818616509437561,-0.4161761999130249,-0.5712460279464722,-0.839323103427887,-0.17444956302642823,0.9560214281082153,-0.891090452671051,0.038784146308898929,-0.42387187480926516,0.1616724729537964,0.6090308427810669,-0.05910468101501465,-0.5704107284545898,0.24065899848937989,0.15299129486083985,0.8052963018417358,0.8231303691864014,-0.7821791172027588,0.7533078193664551,0.20991528034210206,0.7632161378860474,0.02962625026702881,0.9552966356277466,-0.7559149861335754,-0.10521721839904785,0.13021492958068849,-0.8716110587120056,-0.2910759449005127,0.096579909324646,0.9023014307022095,-0.57462477684021,-0.12018156051635742,0.7131050825119019,-0.585986316204071,-0.06291204690933228,0.5919393301010132,0.4107774496078491,-0.3299213647842407,0.941633939743042,0.16819512844085694,-0.7194119095802307,0.9531701803207398,-0.44770312309265139,-0.4138948917388916,-0.7430145144462586,0.1660534143447876,-0.33884841203689577,0.325985312461853,0.8068228960037231,-0.08272671699523926,0.6155850887298584,-0.8777284622192383,-0.937996506690979,0.568053126335144,0.4067680835723877,0.5626833438873291,-0.14286261796951295,0.3665703535079956,-0.42286384105682375,-0.22151201963424684,0.927849531173706,-0.03167247772216797,-0.9034693241119385,-0.7318227291107178,0.20963311195373536,-0.4966171383857727,0.713905930519104,-0.5360090732574463,-0.34905368089675906,-0.020340323448181154,-0.3168042302131653,0.3411163091659546,-0.2748275399208069,0.36054134368896487,-0.7953009009361267,-0.771409273147583,0.6419450044631958,-0.033312976360321048,0.923662543296814,-0.24219417572021485,-0.2607737183570862,-0.2591626048088074,0.5772608518600464,0.028707265853881837,-0.6126440167427063,-0.7750478386878967,-0.6948844790458679,-0.14219236373901368,-0.1616506576538086,-0.34368032217025759,-0.8450860977172852,0.4994657039642334,-0.43705999851226809,-0.9823886752128601,0.39272522926330569,-0.2829864025115967,-0.7157593369483948,-0.9781830906867981,0.006285429000854492,0.6923863887786865,0.22921478748321534,-0.8340164422988892,-0.5333627462387085,0.5104888677597046,-0.7011520862579346,0.8156096935272217,-0.6262149810791016,0.01543116569519043,-0.0632813572883606,-0.7151885628700256,-0.2694630026817322,-0.583345890045166,0.5798207521438599,-0.17437416315078736,0.48801708221435549,0.36049437522888186,0.5013290643692017,-0.8424555063247681,0.6500624418258667,0.025623083114624025,-0.9104993343353272,0.32281720638275149,0.1582261323928833,0.4738994836807251,-0.5398884415626526,0.322329044342041,-0.3419628143310547,-0.014656245708465577,0.8259865045547485,0.9543757438659668,0.4735090732574463,0.23331129550933839,-0.9877769947052002,-0.11770570278167725,0.5420864820480347,0.24053072929382325,0.8301595449447632,0.8103289604187012,0.2460247278213501,-0.11187875270843506,0.5147868394851685,0.08644485473632813,0.3312002420425415,0.29494619369506838,0.7540693283081055,-0.02994084358215332,0.5603777170181274,-0.43075525760650637,0.868425726890564,-0.6025791168212891,0.4255760908126831,0.1664360761642456,0.5831201076507568,-0.7408005595207214,-0.3458390235900879,-0.12693548202514649,-0.24963772296905518,-0.06568765640258789,-0.7757679224014282,0.35833799839019778,-0.21015328168869019,-0.07687205076217652,-0.4168059229850769,0.4881746768951416,-0.4458239674568176,0.1798032522201538,0.791753888130188,0.06264197826385498,-0.07236570119857788,-0.4217923879623413,-0.8136304020881653,-0.7914978265762329,0.5486394166946411,-0.5259650945663452,0.19642305374145509,-0.9180850386619568,-0.6286449432373047,-0.48367226123809817,-0.47229284048080447,0.3600656986236572,-0.057074546813964847,-0.4329119920730591,-0.5380750894546509,-0.7829321622848511,0.7285774946212769,-0.6148805618286133,0.6046515703201294,0.1502692699432373,-0.0211525559425354,0.09099125862121582,-0.06596678495407105,-0.04282742738723755,0.21514153480529786,0.3121570348739624,-0.1817382574081421,0.058530330657958987,0.8303753137588501,0.6533383131027222,-0.04532730579376221,0.49964284896850588,0.8365356922149658,-0.1612444519996643,-0.6573488712310791,0.48796045780181887,0.42808330059051516,-0.5460026264190674,-0.052975237369537356,-0.3988513946533203,-0.8681027889251709,0.836480975151062,0.9004628658294678,-0.8549913763999939,0.26815855503082278,0.16977643966674806,-0.7949937582015991,-0.6166945695877075,-0.4620046019554138,-0.6786015033721924,0.43317127227783205,-0.8326510190963745,-0.7651273012161255,-0.05326807498931885,0.052315354347229007,-0.0987289547920227,-0.39913028478622439,-0.052891314029693606,-0.19675487279891969,0.5275446176528931,0.21409714221954347,-0.3788156509399414,-0.4810749888420105,0.6182401180267334,-0.3134611248970032,0.2654663324356079,0.0823131799697876,0.2175081968307495,0.02458655834197998,0.6619843244552612,0.7348703145980835,-0.6482603549957275,0.40281450748443606,-0.8594915270805359,0.7435625791549683,0.9159601926803589,-0.07159924507141113,0.09520483016967774,0.18816721439361573,0.7225548028945923,0.06351375579833985,-0.034444570541381839,-0.44298988580703738,-0.6321529150009155,0.6794309616088867,-0.23349487781524659,-0.6935484409332275,0.8685823678970337,0.6069270372390747,-0.10249859094619751,-0.2756415009498596,0.217215895652771,0.5256447792053223,0.2108854055404663,-0.18008941411972047,-0.6062740087509155,-0.6999582052230835,-0.049127161502838138,-0.4476604461669922,0.947698712348938,0.15813827514648438,0.4288456439971924,-0.3947368860244751,0.6323927640914917,-0.9426608085632324,0.9133381843566895,-0.5709234476089478,-0.7362773418426514,-0.18351751565933228,0.5555791854858398,-0.5856093168258667,0.17348265647888184,-0.19429492950439454,0.0831756591796875,0.4822636842727661,-0.1067589521408081,-0.6938775777816773,0.6167440414428711,-0.2787959575653076,0.8470815420150757,0.28535306453704836,0.17024171352386475,-0.60499507188797,0.7480683326721191,0.23086941242218018,0.22918236255645753,-0.5113058090209961,-0.5868842601776123,-0.0642353892326355,0.5416570901870728,-0.2787971496582031,0.44969236850738528,-0.8571215271949768,-0.5438216924667358,0.8223377466201782,0.5399832725524902,0.5577411651611328,-0.20170092582702638,0.43978357315063479,-0.24067789316177369,-0.5905207395553589,0.32737278938293459,-0.8417248129844666,0.9322971105575562,0.19787514209747315,-0.129352867603302,0.2719569206237793,-0.8396995663642883,-0.4297053813934326,0.8457289934158325,-0.8420984148979187,0.2774507999420166,0.5003674030303955,0.325925350189209,0.6011894941329956,0.318539023399353,-0.3519427180290222,0.3912177085876465,0.3791860342025757,-0.735410213470459,-0.6137564182281494,-0.09635269641876221,0.8883906602859497,-0.06864392757415772,0.4693530797958374,-0.020539402961730958,0.3529747724533081,-0.6367504596710205,0.9235734939575195,0.2785820960998535,-0.6801412105560303,0.740479588508606,0.9772055149078369,0.29456329345703127,-0.5052870512008667,-0.4094012379646301,0.4148815870285034,-0.3172835111618042,0.24439990520477296,-0.7798990607261658,0.5326205492019653,-0.5447553396224976,-0.3193857669830322,0.17533516883850099,-0.4504718780517578,-0.7059012651443481,-0.2079942226409912,0.3508431911468506,0.2018221616744995,-0.7393115758895874,0.4540187120437622,-0.29733920097351076,0.5288565158843994,0.2613447904586792,0.6530550718307495,0.38435816764831545,0.10591483116149903,0.08147013187408447,-0.4906683564186096,0.9853538274765015,0.5804564952850342,-0.3019510507583618,0.5658813714981079,0.9689846038818359,-0.0006782412528991699,0.003258943557739258,-0.9884292483329773,0.4233672618865967,0.6835850477218628,0.35917210578918459,0.6061984300613403,-0.9353293180465698,0.40956366062164309,-0.23716771602630616,-0.7036312818527222,-0.662657618522644,-0.6216822862625122,0.31071269512176516,-0.806980311870575,0.48226797580718996,0.5553011894226074,0.8905481100082398,0.09816241264343262,0.07628202438354492,0.12500321865081788,0.3538830280303955,-0.5491560697555542,-0.1984207034111023,-0.5910639762878418,0.1071939468383789,-0.46108418703079226,-0.35708028078079226,-0.3590168356895447,-0.2996840476989746,-0.662077009677887,0.3490285873413086,0.36696553230285647,-0.6860853433609009,-0.5755741596221924,0.29670393466949465]},{"dimensions":{"x":16,"y":10},"neurons":[-0.9163033366203308,0.15958213806152345,0.5473045110702515,0.723719596862793,0.10697269439697266,0.031920790672302249,-0.7953481674194336,0.908126950263977,-0.08911877870559693,0.8857904672622681,0.25440967082977297,-0.4981524348258972,0.8836219310760498,-0.14897572994232179,-0.723041296005249,0.8592492341995239,-0.8714391589164734,-0.1350221037864685,-0.2273322343826294,0.004618287086486816,-0.6272234916687012,-0.19248640537261964,0.5501765012741089,-0.09949833154678345,0.23565459251403809,0.7381377220153809,-0.18818151950836183,-0.7599849700927734,0.03505384922027588,0.9729586839675903,0.8458161354064941,-0.6714617013931274,-0.25308436155319216,0.2864680290222168,-0.9245472550392151,0.6249549388885498,-0.5638924837112427,-0.7765605449676514,0.49702203273773196,0.9678468704223633,0.057868242263793948,-0.8280609846115112,-0.07886683940887451,0.7575125694274902,0.6366991996765137,-0.49592816829681399,-0.8365654349327087,0.6050697565078735,-0.505922257900238,-0.8163617253303528,-0.5849906206130981,0.7679833173751831,-0.6367619633674622,-0.1807456612586975,-0.9867375493049622,-0.7741187214851379,-0.6099849343299866,0.9740478992462158,-0.6205162405967712,-0.26604145765304568,0.9951273202896118,-0.916038453578949,0.02476024627685547,-0.9510879516601563,0.12578916549682618,0.4139518737792969,-0.43948835134506228,-0.2633522152900696,-0.7033134698867798,-0.49090659618377688,-0.4623122215270996,-0.8355413675308228,0.9578026533126831,0.23758530616760255,0.40688037872314455,-0.9856984615325928,-0.08866685628890991,0.6593848466873169,0.7066168785095215,-0.11473029851913452,-0.8502917289733887,0.3175760507583618,-0.6168390512466431,-0.785588800907135,-0.2540090084075928,-0.6966500878334045,0.9226824045181274,0.5310330390930176,0.42365455627441409,0.9713388681411743,-0.622636079788208,-0.7312026619911194,0.9261685609817505,-0.556972086429596,0.21231496334075929,-0.027386248111724855,-0.5498203635215759,-0.628135085105896,0.4551016092300415,-0.8574230074882507,-0.16850799322128297,0.26503777503967287,0.32509303092956545,-0.10713702440261841,-0.9902028441429138,0.5123729705810547,0.28385448455810549,-0.9338387250900269,0.941496729850769,0.4925680160522461,-0.8105629086494446,0.6529966592788696,-0.9229981303215027,-0.4783273935317993,-0.7147510051727295,0.7685004472732544,-0.059002816677093509,-0.010380148887634278,0.8323147296905518,-0.5785752534866333,0.4210841655731201,-0.050136566162109378,0.5155287981033325,-0.2789485454559326,0.1458371877670288,0.7362046241760254,-0.6265900135040283,-0.6017229557037354,0.2679837942123413,-0.8584096431732178,-0.6951878070831299,-0.42307335138320925,0.6246639490127564,-0.4144659638404846,-0.21675163507461549,-0.6276038885116577,-0.9442883133888245,0.7451267242431641,0.20574593544006349,0.21424639225006104,0.18367600440979005,-0.6574968099594116,-0.8632366061210632,0.9391050338745117,0.9713435173034668,-0.5027800798416138,-0.20600610971450807,0.3504023551940918,0.38158082962036135,-0.13981950283050538,0.22437012195587159,0.061707139015197757,0.4803239107131958,-0.5219987630844116,0.7065531015396118,0.4816927909851074,0.7670758962631226,-0.21372878551483155,-0.014780998229980469,-0.32349199056625368]},{"dimensions":{"x":10,"y":2},"neurons":[-0.4277891516685486,0.4211336374282837,0.14114069938659669,-0.6973730325698853,0.8576767444610596,0.88086998462677,0.7902423143386841,0.6014461517333984,0.49299120903015139,0.8502570390701294,0.6071703433990479,0.49948596954345705,-0.8105428814888,-0.26252180337905886,-0.983422577381134,0.26145875453948977,0.40787315368652346,-0.24844974279403687,-0.3879932761192322,-0.280029296875]}],"biasesLayerArray":[{"dimensions":{"x":0,"y":0},"neurons":[-0.2741504907608032,0.0462108850479126,-0.8229897022247315,0.0978473424911499,-0.3885260820388794,-0.23820602893829347,0.5412993431091309,0.011487126350402832,0.7451903820037842,-0.7655501365661621,0.9111952781677246,-0.9315516948699951,0.4795384109020233,-0.10997998714447022,-0.20506036281585694,0.6751003265380859]},{"dimensions":{"x":0,"y":0},"neurons":[-0.7531576156616211,0.641442060470581,-0.5059123039245606,-0.799553632736206,-0.42455971240997317,-0.07309353351593018,-0.2167123556137085,-0.16955125331878663,-0.5011606216430664,0.8814311027526856]},{"dimensions":{"x":0,"y":0},"neurons":[-0.32818448543548586,0.3642427623271942]}]}