{
  "fitness": 132510.281,
  "inputLayerDimensions": 51,
  "outputLayerDimensions": 2,
  "hiddenLayers": [
    [
      -0.902978063,
      0.9605318,
      -0.8044641,
      -0.553272,
      0.7973256,
      0.9020186,
      -0.9813275,
      -0.93097645,
      -0.7377778,
      0.6120081,
      -0.8667246,
      0.578373849,
      0.98454,
      0.9526916,
      0.981099844,
      -0.738625944
    ],
    [
      -0.9319958,
      0.302380621,
      0.993708551,
      -0.8836761,
      -0.6100084,
      0.8459685,
      0.9995627,
      0.9819701,
      0.98931843,
      0.664306164
    ]
  ],
  "weights": [
    [
      [
        0.414893031,
        -0.04159856,
        -0.790401638,
        0.473780155,
        -0.8409451,
        -0.224487841,
        0.7419232,
        0.136961341,
        0.218826056,
        -0.72163,
        -0.715550244,
        -0.006557107,
        0.0496410131,
        -0.862178564,
        0.759397864,
        0.575025439
      ],
      [
        0.9240929,
        0.9690175,
        -0.462884128,
        -0.7164998,
        -0.876477838,
        0.998070836,
        0.3882333,
        0.3513062,
        -0.9579785,
        -0.0377874374,
        0.9737841,
        -0.8976886,
        0.209699512,
        0.483972549,
        -0.70228374,
        0.465505362
      ],
      [
        -0.266252875,
        -0.673422337,
        -0.774462938,
        0.7358701,
        -0.4725008,
        0.117552161,
        0.239746213,
        0.4033816,
        0.213080287,
        -0.0163858533,
        -0.6208748,
        -0.8413516,
        0.2567532,
        0.548730254,
        0.352137685,
        0.120361447
      ],
      [
        -0.7169683,
        0.6922648,
        0.452920318,
        0.7635448,
        0.275092,
        -0.0378650427,
        -0.616730869,
        0.211332083,
        0.396401644,
        -0.9681189,
        0.4468286,
        0.60602,
        0.856236458,
        0.137302279,
        0.9686811,
        0.9103509
      ],
      [
        0.101661563,
        -0.4339425,
        0.919279456,
        0.849908,
        0.9810113,
        0.3967718,
        -0.346596837,
        0.08092594,
        0.03437853,
        0.259085178,
        -0.894961059,
        -0.0151355863,
        -0.7731508,
        -0.7982007,
        -0.4507122,
        0.110617161
      ],
      [
        0.8745761,
        -0.9556487,
        0.289858937,
        -0.5145098,
        0.452880144,
        0.772574067,
        -0.464146733,
        0.113752961,
        0.61725235,
        -0.0315328836,
        0.125794649,
        -0.594319463,
        -0.0222327113,
        0.7462418,
        0.956916,
        0.625506639
      ],
      [
        0.9845618,
        -0.229717851,
        -0.6935322,
        0.244776368,
        0.5366216,
        -0.08282232,
        -0.8282447,
        0.474861622,
        -0.606573462,
        -0.0308521986,
        0.322688818,
        -0.789204061,
        0.4752202,
        -0.8113808,
        -0.08391017,
        -0.162496746
      ],
      [
        -0.4515583,
        0.769955754,
        0.714065433,
        0.505741358,
        -0.540679753,
        -0.822114468,
        -0.005746484,
        -0.465300262,
        -0.294046879,
        0.4383551,
        -0.937753856,
        0.208959579,
        -0.8764227,
        -0.799335539,
        0.224243164,
        -0.00336307287
      ],
      [
        -0.0193546414,
        0.341705441,
        0.772388458,
        -0.209054351,
        0.919525266,
        -0.04141313,
        0.5057167,
        0.852152467,
        -0.8579078,
        0.253130436,
        -0.736201167,
        0.419694781,
        -0.2223084,
        0.1637237,
        -0.800781846,
        -0.8463352
      ],
      [
        0.331508756,
        -0.0349894762,
        0.389536977,
        0.7023648,
        -0.5308788,
        0.6725079,
        0.799590349,
        -0.5275365,
        0.7529743,
        -0.179571688,
        0.467557549,
        0.5465728,
        -0.102696896,
        -0.244118333,
        0.8337877,
        -0.168808877
      ],
      [
        0.8899753,
        0.08077192,
        0.386255383,
        0.7987169,
        -0.6769595,
        -0.04347509,
        -0.454467833,
        -0.7477399,
        -0.7922508,
        0.5546353,
        0.9544486,
        0.5332682,
        -0.009031773,
        0.854335666,
        -0.8826358,
        -0.7831786
      ],
      [
        -0.8322375,
        0.802396655,
        -0.80127,
        -0.0391281247,
        0.06854272,
        0.787161469,
        0.985995531,
        -0.733390868,
        0.583292961,
        0.317598343,
        0.8061986,
        -0.9082645,
        -0.0476808548,
        0.0769546,
        -0.2431935,
        -0.5153154
      ],
      [
        -0.857368,
        0.6314163,
        0.185835,
        -0.5298173,
        0.1939081,
        0.808794,
        0.667192936,
        0.181498766,
        0.5261507,
        0.98174715,
        0.6470605,
        -0.49829942,
        -0.514379442,
        0.398831367,
        -0.347852647,
        0.992796063
      ],
      [
        0.355311751,
        -0.273104131,
        -0.244724691,
        -0.978475034,
        -0.8506259,
        -0.140298367,
        0.9974115,
        0.642491341,
        -0.469264925,
        0.5017874,
        0.324169636,
        0.8505287,
        0.193881273,
        0.868322253,
        0.7164991,
        0.5347806
      ],
      [
        -0.217861235,
        0.1280073,
        0.160282969,
        0.0784138441,
        -0.608632445,
        -0.269881785,
        -0.414293945,
        -0.8378732,
        0.915007,
        -0.8827559,
        -0.4585961,
        -0.4508931,
        0.314864039,
        0.220713615,
        -0.9842536,
        0.137646317
      ],
      [
        -0.831564367,
        -0.6282722,
        -0.391468644,
        -0.5502401,
        0.603469849,
        0.3058864,
        0.43873322,
        -0.0417282,
        0.2897992,
        0.8579879,
        0.5518522,
        -0.7246896,
        -0.0982707143,
        -0.7172646,
        -0.9284382,
        0.184900522
      ],
      [
        -0.432515919,
        -0.0243175626,
        0.445037961,
        -0.430811822,
        -0.3871529,
        0.300508857,
        0.161747456,
        -0.0542343259,
        -0.514845133,
        0.917132,
        0.5987567,
        0.13213253,
        0.22910428,
        -0.601174235,
        -0.894552231,
        0.707268834
      ],
      [
        0.408200622,
        0.1486671,
        0.325657964,
        0.383428574,
        -0.612609,
        0.3583238,
        -0.743851244,
        -0.8241978,
        -0.3092851,
        0.4427626,
        -0.812747836,
        0.851822138,
        -0.607644439,
        -0.283872664,
        -0.687311769,
        0.9667747
      ],
      [
        -0.6223071,
        -0.6318962,
        0.9906391,
        -0.9226663,
        0.968152761,
        -0.135935366,
        0.08746338,
        0.0976495743,
        0.9760529,
        -0.215133727,
        0.773521662,
        -0.216111183,
        -0.743888438,
        0.827440739,
        0.02676797,
        0.796627641
      ],
      [
        -0.3488682,
        0.8138747,
        0.699025154,
        0.398550153,
        0.029130578,
        -0.71744585,
        -0.9131261,
        -0.446155548,
        0.70679903,
        0.600227833,
        -0.7366235,
        -0.9101128,
        -0.568464041,
        -0.598930359,
        0.196229577,
        0.13799715
      ],
      [
        -0.14806217,
        -0.973531544,
        -0.7892441,
        0.476073623,
        0.441640615,
        -0.349359632,
        -0.621876,
        0.17122829,
        0.07082641,
        -0.450562179,
        0.5420213,
        -0.900811136,
        0.3493688,
        0.7736541,
        -0.361009,
        -0.00273424387
      ],
      [
        0.6720389,
        0.981378555,
        -0.2729411,
        -0.7471874,
        -0.120312929,
        0.535583258,
        0.6016152,
        0.4659723,
        0.08258128,
        -0.9219991,
        -0.9337882,
        0.454759,
        -0.516411066,
        0.009007454,
        0.538877964,
        -0.4694698
      ],
      [
        -0.8866667,
        -0.235865712,
        -0.127442241,
        0.06670952,
        0.789554,
        -0.8456822,
        -0.957287,
        0.176680684,
        -0.9583354,
        0.847357631,
        0.316305041,
        -0.174836338,
        -0.4702837,
        -0.873062849,
        -0.131278992,
        -0.1350646
      ],
      [
        0.20045197,
        -0.6221608,
        0.649114251,
        0.6350775,
        0.4880036,
        -0.7637228,
        0.856767058,
        -0.632574856,
        -0.406516254,
        0.264869928,
        0.04519677,
        0.249541521,
        -0.940003,
        0.226169825,
        0.471560717,
        -0.3382312
      ],
      [
        0.173094392,
        -0.703038633,
        0.6672398,
        -0.95525223,
        0.711599946,
        -0.393536866,
        -0.4246974,
        -0.6643946,
        0.3351456,
        -0.09140265,
        -0.5285684,
        0.886780262,
        0.36899662,
        -0.9389248,
        -0.34583658,
        -0.3844602
      ],
      [
        0.2654711,
        -0.6114893,
        -0.5894605,
        0.841138363,
        -0.383651972,
        0.163475275,
        0.9240371,
        0.6651076,
        -0.199824512,
        -0.237252831,
        0.2764336,
        -0.019741118,
        0.8287685,
        -0.9048488,
        0.100196481,
        0.1757456
      ],
      [
        0.476251,
        0.9765068,
        -0.209101617,
        0.934403658,
        0.7089013,
        -0.738424838,
        -0.545705736,
        0.7700722,
        0.660247445,
        -0.5706972,
        -0.7533908,
        0.3837918,
        -0.312756181,
        0.82865,
        -0.884693861,
        0.956262
      ],
      [
        -0.230800867,
        0.132688642,
        0.491956,
        0.788328767,
        -0.8182634,
        0.9136605,
        -0.9380287,
        0.116266131,
        0.460767031,
        -0.946347,
        0.6763109,
        0.14502883,
        0.506783,
        0.5939301,
        -0.495238781,
        0.4888631
      ],
      [
        -0.187663376,
        -0.520055056,
        0.7799181,
        0.119025469,
        -0.198752165,
        0.8588383,
        0.06294584,
        -0.7678734,
        0.6615716,
        -0.6899689,
        -0.153340638,
        0.7023634,
        -0.9321002,
        -0.764463,
        0.8448113,
        -0.125647962
      ],
      [
        -0.6575813,
        -0.0464190245,
        0.5989144,
        -0.580468833,
        0.06909561,
        -0.404369533,
        -0.906873,
        -0.54695946,
        -0.481666863,
        0.4648596,
        -0.317958653,
        -0.974863,
        -0.9889174,
        -0.6148734,
        -0.0614555478,
        0.1540438
      ],
      [
        -0.3439809,
        0.329779148,
        0.21605289,
        0.54086864,
        0.115594745,
        -0.9620111,
        -0.927112758,
        -0.541689754,
        -0.487459838,
        -0.546417,
        -0.7944549,
        0.6336887,
        -0.5040517,
        0.6450083,
        0.495164275,
        0.103708982
      ],
      [
        -0.9501387,
        0.5696455,
        0.26565814,
        0.204687834,
        -0.6481846,
        0.5414047,
        0.46389854,
        0.953989744,
        0.8012631,
        0.183597684,
        -0.7557334,
        -0.7382661,
        0.488190651,
        0.9042194,
        0.611977458,
        -0.0424317122
      ],
      [
        -0.526376545,
        0.2066493,
        -0.856613338,
        -0.2923054,
        -0.241996288,
        0.18639183,
        -0.892920434,
        -0.754467845,
        -0.420149982,
        -0.9907131,
        -0.3514197,
        0.856159449,
        0.6803793,
        0.978761435,
        0.245223165,
        -0.540336967
      ],
      [
        -0.376510084,
        -0.182747245,
        0.371521831,
        -0.467019856,
        0.137179375,
        -0.3121062,
        0.534095764,
        0.384750962,
        -0.351960659,
        0.842198133,
        -0.330979526,
        0.9972118,
        0.6353947,
        0.09781158,
        0.582317352,
        -0.9455597
      ],
      [
        0.139902592,
        -0.186280787,
        0.0270041227,
        0.58754313,
        0.843433261,
        0.9978889,
        -0.685245752,
        -0.7296346,
        0.5645226,
        -0.234437525,
        0.8581848,
        -0.606215537,
        0.284603,
        0.47788322,
        -0.201477349,
        0.374955654
      ],
      [
        0.5999514,
        -0.113854408,
        0.241701961,
        0.606972933,
        0.321135283,
        0.28993237,
        0.0825537443,
        -0.9842427,
        -0.987891555,
        0.9052111,
        0.0191841125,
        0.07795584,
        0.623084068,
        -0.238358736,
        -0.9936307,
        -0.383659184
      ],
      [
        0.8778008,
        0.190477967,
        -0.0578603745,
        -0.373013616,
        -0.5558908,
        0.883314252,
        -0.109151721,
        -0.22919178,
        0.201114178,
        -0.184120178,
        0.6025244,
        -0.450451255,
        0.368506432,
        0.405304551,
        0.353984952,
        0.4006194
      ],
      [
        -0.426655233,
        -0.179184914,
        -0.5996707,
        -0.369109571,
        0.342516541,
        -0.04714501,
        -0.6322962,
        0.5146084,
        0.6250926,
        0.651103735,
        0.0229455233,
        -0.226603687,
        -0.202998936,
        -0.7575034,
        -0.5671695,
        -0.323110521
      ],
      [
        -0.651595,
        -0.9077326,
        0.5644572,
        0.8647603,
        0.875944853,
        -0.38226825,
        0.264447927,
        -0.597120464,
        -0.6740707,
        -0.468629956,
        0.358629465,
        0.433915615,
        0.205319285,
        0.628792644,
        -0.0558518171,
        0.9727062
      ],
      [
        0.208399653,
        0.08727682,
        0.422024846,
        -0.9593905,
        0.9909698,
        0.6591799,
        0.9934492,
        -0.5762495,
        0.0408844948,
        0.5817783,
        0.121916413,
        0.4181217,
        -0.57749325,
        -0.4176213,
        -0.437306,
        -0.468124628
      ],
      [
        0.767413139,
        0.0889428854,
        -0.575138569,
        0.418053865,
        -0.822221,
        0.300372243,
        -0.2324326,
        0.6320828,
        -0.691606045,
        0.968034,
        -0.700009465,
        0.9293723,
        0.711451769,
        -0.8956868,
        0.460065365,
        -0.324481547
      ],
      [
        0.8625697,
        0.6987108,
        -0.491334319,
        -0.0617122054,
        0.4868561,
        -0.0285034776,
        -0.6166798,
        -0.6038139,
        -0.499385178,
        -0.210673869,
        0.692044854,
        -0.3526777,
        0.04780543,
        -0.7812098,
        0.740259647,
        0.260246158
      ],
      [
        -0.6142269,
        0.04786086,
        -0.9756808,
        -0.998618841,
        0.036411643,
        0.427710772,
        -0.219451189,
        0.958056331,
        0.8421613,
        -0.370105326,
        0.09236801,
        -0.520230532,
        0.6629418,
        -0.6938343,
        0.11659801,
        -0.105171621
      ],
      [
        0.6936877,
        0.259691834,
        0.0131095648,
        -0.0562454462,
        -0.9950563,
        -0.4544565,
        0.7460109,
        0.7873659,
        0.8231391,
        -0.477033675,
        -0.231394649,
        -0.3730675,
        -0.03972423,
        -0.69324255,
        -0.3866582,
        0.8805281
      ],
      [
        -0.9876614,
        0.777647257,
        -0.9196727,
        0.5445287,
        0.5493537,
        0.6009822,
        -0.5936837,
        -0.25546205,
        -0.219707608,
        0.270928383,
        0.6187397,
        0.200669765,
        0.9458325,
        0.142783642,
        0.612278938,
        -0.660163343
      ],
      [
        -0.971033633,
        -0.0253384709,
        0.7136353,
        -0.298412859,
        0.8720517,
        -0.5147716,
        -0.297633648,
        0.992610455,
        -0.163312435,
        -0.8136982,
        -0.382053018,
        -0.18119967,
        0.637385368,
        -0.265735865,
        0.522207,
        -0.291444778
      ],
      [
        0.345217347,
        0.6886064,
        -0.870561957,
        -0.211259425,
        -0.552219033,
        0.496505737,
        -0.7943079,
        0.992567062,
        0.769913554,
        0.94510293,
        -0.5212109,
        0.800628543,
        0.239600539,
        0.9800644,
        -0.5598805,
        0.686277747
      ],
      [
        0.755461931,
        0.471272945,
        -0.8051966,
        -0.6640938,
        -0.7802565,
        0.3363564,
        -0.7785662,
        -0.0561721921,
        -0.75774014,
        0.59119916,
        0.245088458,
        -0.2806043,
        0.217936635,
        0.9624914,
        -0.4541763,
        0.7438061
      ],
      [
        0.8583933,
        -0.597774744,
        0.144707084,
        0.218718171,
        0.305423617,
        -0.206846714,
        0.7141062,
        0.0188149214,
        0.406793475,
        0.5563705,
        0.8314413,
        0.380725741,
        0.3487966,
        0.493732452,
        -0.0240995884,
        -0.9639505
      ],
      [
        -0.8766197,
        -0.8720615,
        0.244867921,
        0.6840085,
        0.234325409,
        -0.7813027,
        -0.6174719,
        -0.05958301,
        -0.860036,
        -0.005952716,
        0.635075,
        -0.654392362,
        0.743741155,
        0.502604365,
        0.211763144,
        -0.0225415826
      ],
      [
        -0.0253425837,
        0.57578814,
        -0.9400896,
        -0.470013678,
        -0.301953077,
        -0.531212568,
        0.248165369,
        -0.163603008,
        0.9376416,
        -0.07628256,
        -0.7214308,
        0.784404039,
        -0.419515,
        0.6758357,
        0.9544941,
        -0.589024365
      ]
    ],
    [
      [
        0.9450871,
        0.4753821,
        -0.5575255,
        0.3216673,
        -0.4062122,
        0.166082859,
        -0.8652755,
        0.6114204,
        0.361883283,
        -0.814322531
      ],
      [
        0.6018487,
        0.7850175,
        0.0994874239,
        -0.5523106,
        -0.283847153,
        0.103746057,
        0.236548066,
        0.127705216,
        -0.3118062,
        -0.808447361
      ],
      [
        -0.424074471,
        -0.711245537,
        -0.355502784,
        -0.6384733,
        -0.715542853,
        0.138498068,
        -0.6495956,
        -0.8850182,
        -0.0176011324,
        -0.7889078
      ],
      [
        -0.731228352,
        0.204072475,
        -0.466163039,
        0.152094483,
        0.495991945,
        0.0127438307,
        -0.402896047,
        -0.799816847,
        -0.8758864,
        -0.189955711
      ],
      [
        -0.174973488,
        0.365067959,
        0.7619916,
        -0.85455513,
        0.177901983,
        -0.2695579,
        0.9255146,
        -0.509386361,
        0.6833148,
        -0.453773081
      ],
      [
        -0.08476466,
        -0.220189333,
        -0.491608322,
        0.30563426,
        0.489921331,
        0.049955368,
        0.409826159,
        -0.49014312,
        -0.59619,
        -0.989364147
      ],
      [
        0.9950999,
        0.3540821,
        0.259907,
        0.8986162,
        0.381020784,
        0.308997154,
        0.0935334,
        -0.315554976,
        -0.330255568,
        -0.835646152
      ],
      [
        -0.7509941,
        -0.260482371,
        -0.86343,
        0.664007545,
        -0.7387006,
        0.6730565,
        -0.4837162,
        0.301851749,
        -0.5974971,
        -0.807448
      ],
      [
        0.178643942,
        0.415587068,
        -0.6354128,
        -0.386626482,
        -0.695414543,
        0.1698848,
        -0.719355464,
        -0.767852366,
        0.452744246,
        0.11184442
      ],
      [
        -0.3761453,
        -0.9295122,
        -0.129709244,
        0.5591737,
        -0.3586827,
        0.07949698,
        0.834488153,
        0.1417284,
        -0.167350829,
        -0.9748053
      ],
      [
        0.5918006,
        0.633543253,
        -0.907237351,
        0.023029089,
        -0.227865875,
        -0.6825721,
        0.411241174,
        -0.9213874,
        -0.5484847,
        -0.397176266
      ],
      [
        -0.95698905,
        0.5640466,
        0.726244569,
        -0.26178658,
        -0.5916871,
        -0.0253956318,
        -0.977734,
        -0.4471869,
        -0.0575060248,
        -0.184549034
      ],
      [
        -0.248139024,
        -0.0331619978,
        0.359875441,
        0.987345338,
        -0.726510167,
        0.8276206,
        0.482941747,
        -0.45510453,
        0.5252805,
        0.5721971
      ],
      [
        0.743355751,
        0.6256478,
        -0.6811706,
        -0.3660648,
        -0.922902048,
        0.177883625,
        -0.6943896,
        -0.457509816,
        -0.166693687,
        -0.880809546
      ],
      [
        -0.017729938,
        0.410297275,
        -0.275930822,
        0.528800964,
        0.9594103,
        0.872999549,
        0.9254987,
        0.9814838,
        -0.0346032381,
        0.845968962
      ],
      [
        0.156214356,
        0.126057625,
        0.678587556,
        0.5923017,
        0.9421444,
        -0.330412745,
        0.1643945,
        -0.8629665,
        -0.8462894,
        -0.8357724
      ]
    ],
    [
      [
        -0.625077665,
        0.408258438
      ],
      [
        0.05213642,
        -0.4785974
      ],
      [
        0.5837387,
        -0.5168072
      ],
      [
        0.608611941,
        -0.62679857
      ],
      [
        0.10781455,
        0.7753538
      ],
      [
        0.344185829,
        -0.348306835
      ],
      [
        0.699259758,
        0.23121202
      ],
      [
        -0.3233531,
        0.594630241
      ],
      [
        -0.8898537,
        -0.63394773
      ],
      [
        -0.319001257,
        0.9898877
      ]
    ]
  ],
  "biases": [
    [
      [
        -0.176413655,
        0.8844881,
        0.0008724928,
        -0.8285785,
        0.0827585459,
        -0.109972596,
        0.74245286,
        -0.7865963,
        -0.738842249,
        -0.2813679,
        -0.828235865,
        -0.6906221,
        -0.7933128,
        -0.146931529,
        0.8974812,
        -0.405131936
      ]
    ],
    [
      [
        -0.553139448,
        -0.233872056,
        0.494283885,
        -0.255870938,
        -0.801563,
        -0.07479608,
        0.2736933,
        0.5348792,
        0.898453951,
        -0.945480347
      ]
    ],
    [
      [
        0.8126955,
        -0.161896586
      ]
    ]
  ],
  "activationType": 1
}