{
  "fitness": 846857.063,
  "inputLayerDimensions": 51,
  "outputLayerDimensions": 2,
  "hiddenLayers": [
    [
      0.688251555,
      -0.535236835,
      0.753518939,
      -0.258901656,
      -0.5076578,
      -0.380821258,
      -0.199889779,
      0.786853731,
      -0.322128862,
      0.874836,
      0.9126429,
      -0.9907146,
      -0.1776033,
      0.9938923,
      -0.6829365,
      -0.944814265
    ],
    [
      0.9613773,
      0.928833067,
      0.350860983,
      0.7657342,
      -0.00411377,
      0.9100768,
      0.9606139,
      -0.271819383,
      -0.926840067,
      -0.970592141
    ]
  ],
  "weights": [
    [
      [
        0.8794439,
        -0.6451297,
        -0.388114572,
        -0.126701057,
        -0.4241041,
        0.6689259,
        -0.261867642,
        0.9668393,
        -0.884073853,
        -0.3885575,
        -0.4194517,
        -0.945759237,
        -0.650699,
        0.3894354,
        -0.205552876,
        -0.312420964
      ],
      [
        -0.114888787,
        -0.718745351,
        -0.8400535,
        -0.5451566,
        -0.147213042,
        0.5393367,
        0.6802689,
        -0.167414665,
        -0.302970946,
        -0.8032978,
        -0.774729252,
        -0.241601586,
        0.65252614,
        -0.4835049,
        -0.529217362,
        -0.141619086
      ],
      [
        -0.439264536,
        0.029065609,
        0.99007833,
        -0.2704171,
        0.13678968,
        -0.440425217,
        0.701035857,
        -0.931557238,
        -0.171812117,
        -0.302989,
        -0.7093039,
        0.9586228,
        -0.9380083,
        -0.1993444,
        0.07495284,
        -0.7677033
      ],
      [
        -0.7587495,
        -0.495505631,
        0.2198155,
        -0.204671264,
        0.9474232,
        -0.81239897,
        0.109658,
        -0.866863,
        -0.9417124,
        0.907261133,
        -0.7616416,
        -0.700374,
        0.396601677,
        -0.557087541,
        -0.518807054,
        -0.327946424
      ],
      [
        -0.8626757,
        0.17247951,
        -0.7506207,
        0.809434652,
        0.6728828,
        -0.5220719,
        -0.2795515,
        0.0140889883,
        -0.7547857,
        -0.9058967,
        0.8731487,
        -0.998367369,
        0.7047548,
        0.267429948,
        0.946115,
        0.732542634
      ],
      [
        0.0964779854,
        0.8185134,
        0.173463583,
        0.8026817,
        -0.183300316,
        0.1599288,
        -0.8601923,
        -0.98326844,
        -0.295231581,
        0.1660769,
        0.930315733,
        0.7874439,
        0.16005528,
        -0.0690952539,
        0.03759241,
        0.289921761
      ],
      [
        -0.6180643,
        -0.8414339,
        0.762789,
        -0.0338498354,
        0.491892934,
        0.8764193,
        -0.8792933,
        -0.9513732,
        -0.623791635,
        -0.4131505,
        0.09502065,
        0.439322472,
        0.577016354,
        -0.311928272,
        0.7247422,
        0.03741777
      ],
      [
        -0.6459596,
        0.5131223,
        -0.664549947,
        0.287267685,
        0.6632379,
        -0.8806379,
        -0.613667369,
        -0.038390398,
        0.8338535,
        -0.8641477,
        0.142955422,
        0.220506191,
        0.291488767,
        0.8857422,
        -0.5818144,
        -0.3412755
      ],
      [
        -0.251108885,
        -0.400259376,
        -0.162658811,
        0.415395856,
        -0.857714057,
        0.406816483,
        0.109575868,
        0.2208513,
        -0.317726016,
        -0.435836554,
        0.6268183,
        -0.192295432,
        -0.3430646,
        -0.215145767,
        -0.139107168,
        -0.9367955
      ],
      [
        -0.6059562,
        0.777577639,
        0.321166158,
        0.8308488,
        -0.8347981,
        -0.9612586,
        0.462398767,
        -0.359591663,
        -0.252834678,
        -0.224318683,
        0.7788627,
        0.3373891,
        0.8596461,
        -0.6798061,
        0.4354787,
        0.671904445
      ],
      [
        -0.7368045,
        0.34536314,
        -0.574126,
        0.2630794,
        0.138899922,
        0.44286108,
        0.9784657,
        0.126064777,
        -0.294557452,
        -0.0576931834,
        0.5608851,
        -0.7038504,
        0.102440357,
        0.9730325,
        -0.3684789,
        0.530937433
      ],
      [
        -0.9466596,
        -0.218834162,
        0.576246,
        0.198457479,
        -0.434299469,
        0.5409789,
        -0.411368,
        0.6150811,
        0.290591836,
        -0.5320649,
        -0.336730182,
        0.479342461,
        0.233858585,
        -0.1607365,
        0.6303903,
        0.03463471
      ],
      [
        -0.901487947,
        -0.190782249,
        0.7068981,
        -0.5124646,
        0.7412038,
        -0.05041784,
        0.0656216145,
        0.6934693,
        0.706261158,
        -0.7604004,
        0.530593634,
        0.9000777,
        -0.6013824,
        -0.538425446,
        -0.8933829,
        -0.5256425
      ],
      [
        0.647530437,
        -0.8142102,
        0.6240866,
        -0.9251443,
        -0.276628733,
        0.5519552,
        -0.29916,
        0.03234136,
        -0.45846498,
        0.207249522,
        0.133071423,
        -0.8377346,
        0.608775258,
        -0.1590966,
        -0.887653,
        -0.128799677
      ],
      [
        0.09536171,
        -0.8116767,
        0.231748581,
        -0.6632079,
        0.265496016,
        0.9949894,
        -0.82673043,
        -0.6376711,
        -0.3295551,
        0.373265266,
        -0.0845108,
        0.228806138,
        -0.125542283,
        -0.8483374,
        0.6865001,
        -0.882947
      ],
      [
        0.670552731,
        0.246822357,
        0.8697239,
        -0.0412341356,
        0.505104065,
        -0.850529552,
        -0.6551045,
        0.8300301,
        0.8776425,
        -0.5313928,
        -0.8625483,
        -0.175611079,
        -0.9454551,
        0.9395579,
        0.849535942,
        -0.210580349
      ],
      [
        0.480051279,
        0.049066782,
        0.186752677,
        -0.0845533,
        0.5317925,
        0.636412263,
        -0.369321644,
        -0.1192739,
        -0.575466752,
        -0.6497445,
        -0.843335032,
        0.9328319,
        0.429576874,
        0.3357432,
        0.930930257,
        -0.6739609
      ],
      [
        0.879197955,
        0.4280058,
        -0.0606222749,
        -0.045773983,
        -0.365136981,
        -0.9210323,
        -0.986943066,
        0.0398396254,
        0.553388,
        0.212615013,
        0.8362272,
        0.2697519,
        0.039221406,
        0.575447559,
        0.458424449,
        -0.6446587
      ],
      [
        0.6998197,
        -0.9528767,
        0.8897058,
        0.7654388,
        -0.637415648,
        -0.659955263,
        0.08075237,
        0.942927241,
        0.05990255,
        0.732910037,
        0.440319777,
        0.9874388,
        -0.08243972,
        -0.294841051,
        -0.397913218,
        -0.55669713
      ],
      [
        0.525972,
        0.519552946,
        -0.522988856,
        0.914135337,
        0.8302275,
        -0.07288194,
        -0.308339119,
        0.6551409,
        -0.4853741,
        -0.138568342,
        -0.859399438,
        -0.0874487162,
        0.225586653,
        -0.6240581,
        -0.7310599,
        0.9340311
      ],
      [
        0.7698705,
        -0.5533313,
        0.0114572048,
        0.552078247,
        0.7786515,
        0.243256092,
        0.344174981,
        -0.731377661,
        0.7588148,
        -0.183771133,
        0.273311973,
        -0.221067965,
        -0.5255134,
        0.758888841,
        0.8006396,
        -0.8695717
      ],
      [
        -0.7862957,
        0.334797263,
        -0.8135629,
        0.414360523,
        -0.759842634,
        -0.06924236,
        0.37440598,
        0.123724222,
        0.5955756,
        -0.80335927,
        0.4470141,
        0.416529179,
        0.116872549,
        -0.413740635,
        0.248365164,
        -0.647667348
      ],
      [
        -0.479901433,
        0.9706216,
        0.675408363,
        -0.5792154,
        0.8736336,
        -0.668276668,
        -0.3894652,
        0.88209796,
        -0.922290444,
        -0.681798756,
        0.992029548,
        0.371727347,
        0.3125249,
        0.300264239,
        0.964019537,
        -0.9225367
      ],
      [
        0.816033,
        -0.09601045,
        -0.5303045,
        0.796793461,
        0.241155982,
        0.125033259,
        0.01603508,
        -0.997961044,
        0.431161642,
        0.9235786,
        0.414007783,
        -0.1759631,
        0.0563813448,
        0.432962179,
        -0.327909172,
        -0.299702883
      ],
      [
        0.4799236,
        -0.215560138,
        0.435188651,
        -0.101587892,
        -0.08670443,
        -0.139579177,
        -0.379595518,
        0.680686355,
        -0.202922642,
        -0.0663225651,
        0.306904078,
        0.25406003,
        0.0294699669,
        0.640034556,
        -0.6226678,
        0.5167341
      ],
      [
        0.8520942,
        -0.104912341,
        -0.8462738,
        -0.78979367,
        -0.7183205,
        0.20751667,
        0.2423408,
        0.8605217,
        -0.36276716,
        0.2640562,
        -0.05128044,
        0.59095,
        0.916302443,
        -0.907351255,
        -0.19577688,
        0.5786158
      ],
      [
        -0.2355895,
        0.898355,
        0.444296479,
        -0.135381281,
        0.184570789,
        0.9156939,
        -0.468568444,
        0.7629446,
        0.2285608,
        0.1880194,
        -0.558721542,
        0.04369688,
        0.6010915,
        0.990398049,
        0.6365553,
        0.7144095
      ],
      [
        0.9500203,
        -0.718361,
        -0.280198634,
        0.477048159,
        -0.2295841,
        0.334750652,
        0.6619384,
        -0.292332947,
        -0.295778155,
        -0.0770582557,
        0.6850984,
        -0.104628682,
        0.331559777,
        -0.954112053,
        0.777349353,
        0.483080268
      ],
      [
        -0.7427057,
        -0.5297479,
        0.84165,
        0.8430644,
        0.2724123,
        -0.5513985,
        0.875837564,
        0.341277838,
        -0.152108908,
        0.5381818,
        0.4956851,
        -0.8143383,
        0.4191996,
        -0.195457757,
        -0.410474718,
        0.34517014
      ],
      [
        0.8062488,
        -0.168889225,
        0.2603426,
        -0.240660727,
        -0.3491665,
        0.6348945,
        -0.8662997,
        0.05126953,
        0.391858935,
        -0.8148544,
        -0.797607362,
        -0.8636646,
        -0.7820208,
        0.84205997,
        -0.0108648539,
        0.2108587
      ],
      [
        -0.243371487,
        0.4281087,
        -0.912951231,
        0.251530051,
        0.992587447,
        -0.201470435,
        -0.234806955,
        -0.0631657839,
        0.525633454,
        0.03303504,
        0.482442975,
        -0.97096175,
        0.5657002,
        -0.449351668,
        0.227083564,
        0.9426775
      ],
      [
        -0.0125813484,
        -0.4097991,
        -0.8346255,
        0.106575012,
        -0.5766498,
        -0.303297222,
        -0.7080231,
        -0.83492434,
        -0.7593088,
        -0.734058857,
        0.7864579,
        0.454311728,
        0.244081616,
        -0.794987738,
        -0.3345973,
        -0.9570532
      ],
      [
        -0.3399459,
        -0.564624846,
        0.853830934,
        0.420145869,
        0.9451543,
        0.794610858,
        -0.149361789,
        0.642926931,
        -0.6048238,
        -0.864472151,
        -0.396173,
        -0.15985781,
        -0.8452647,
        -0.8764534,
        0.5939392,
        -0.09390986
      ],
      [
        0.832023859,
        0.0450952053,
        0.9514688,
        0.300004959,
        -0.998873949,
        0.5658846,
        -0.780779839,
        -0.6639058,
        -0.9650231,
        -0.2341044,
        0.2720338,
        0.5837817,
        -0.3962078,
        -0.215674341,
        0.08318174,
        -0.5293172
      ],
      [
        0.844859,
        0.9682907,
        0.5864353,
        0.2152195,
        0.152800918,
        -0.831238151,
        -0.8046316,
        -0.8890199,
        -0.77089,
        0.8285531,
        0.9974055,
        -0.260688,
        0.1502577,
        -0.236677766,
        0.6254599,
        0.47256887
      ],
      [
        -0.2605623,
        0.370386839,
        0.0366302729,
        0.666913152,
        0.1674372,
        0.576351166,
        0.215884686,
        -0.471971154,
        -0.660088658,
        -0.261688232,
        0.7308861,
        0.441751242,
        0.04327619,
        0.7206881,
        0.8286762,
        -0.7695333
      ],
      [
        0.7775692,
        -0.763067067,
        -0.8324712,
        0.911083937,
        0.7832844,
        0.898020744,
        -0.63757515,
        -0.519176364,
        0.622807741,
        -0.437963128,
        0.232625246,
        0.444843769,
        0.814796,
        -0.926663756,
        0.822894454,
        -0.833351731
      ],
      [
        -0.227064312,
        -0.003457129,
        -0.9236938,
        -0.280586541,
        0.228400946,
        0.5319997,
        0.100497365,
        -0.2449562,
        -0.2834723,
        0.2277081,
        -0.740260839,
        -0.933656633,
        -0.7744188,
        0.8775648,
        -0.601111531,
        -0.477605224
      ],
      [
        -0.8187609,
        -0.0728063,
        -0.120602965,
        0.456743121,
        -0.6502426,
        -0.494199038,
        0.6228702,
        0.102052093,
        -0.157037914,
        0.268209457,
        -0.734043062,
        0.280297279,
        -0.255866,
        0.89035,
        0.683915734,
        0.6151961
      ],
      [
        0.522914052,
        0.554353237,
        0.933127761,
        -0.5305859,
        0.492639184,
        0.9138191,
        -0.3090436,
        -0.4593097,
        -0.321314037,
        0.2838155,
        -0.613084,
        0.9973172,
        0.7100611,
        -0.2501489,
        0.9118556,
        -0.872751057
      ],
      [
        0.205413222,
        0.106169105,
        0.485419869,
        -0.07509965,
        0.418681264,
        0.246138573,
        -0.4885248,
        0.7713504,
        -0.07568586,
        -0.0205470324,
        0.7539693,
        0.3598249,
        0.474898934,
        0.7812973,
        -0.765137136,
        0.524094
      ],
      [
        0.892820954,
        0.009279013,
        -0.628112435,
        -0.5939854,
        0.183986664,
        -0.8886289,
        0.0744788647,
        0.0566946268,
        -0.9458676,
        0.0265212059,
        -0.963621438,
        -0.11425674,
        0.308168054,
        -0.183238864,
        -0.05269313,
        -0.772563457
      ],
      [
        -0.3065889,
        0.233014226,
        -0.979725063,
        -0.8335521,
        0.652528763,
        0.7994592,
        0.155864477,
        -0.450102985,
        -0.35590446,
        -0.350494385,
        -0.3008508,
        -0.625522733,
        -0.0216950774,
        -0.433738053,
        0.673169732,
        -0.448591828
      ],
      [
        0.0633888245,
        0.5943428,
        0.246688128,
        -0.440216482,
        -0.08302301,
        0.06723726,
        0.0234375,
        -0.6311592,
        0.132542372,
        -0.3822989,
        0.251118541,
        0.6404871,
        0.108010292,
        0.9165052,
        0.125040412,
        0.10056293
      ],
      [
        0.7415613,
        -0.8916072,
        -0.7343104,
        0.22440064,
        -0.924261332,
        0.0759954453,
        0.871073961,
        0.759385467,
        0.7983067,
        0.6477338,
        -0.192327619,
        -0.321354866,
        -0.2678494,
        0.400307536,
        0.491504669,
        0.172751784
      ],
      [
        0.456495047,
        0.0370051861,
        0.8769469,
        0.65435946,
        -0.0242477059,
        0.577582836,
        0.47780478,
        0.277919054,
        0.786340237,
        0.990970731,
        0.627813339,
        -0.7612125,
        -0.4942966,
        0.8918228,
        0.6125618,
        -0.830969453
      ],
      [
        0.180832148,
        -0.7240354,
        0.05691147,
        0.37883985,
        -0.307163775,
        -0.408154666,
        -0.3268873,
        0.8899416,
        0.2415011,
        -0.6309342,
        -0.06046015,
        0.227613449,
        0.6535201,
        -0.5585338,
        0.6136285,
        -0.4235384
      ],
      [
        0.206138611,
        -0.254523933,
        0.8533282,
        -0.532264948,
        0.601735234,
        -0.7777047,
        0.408825278,
        0.797938943,
        0.854126334,
        0.179084659,
        0.56834507,
        0.490737319,
        0.0696367,
        0.6370084,
        -0.84369874,
        -0.754138947
      ],
      [
        0.206754565,
        0.401045322,
        0.451053739,
        -0.0113016367,
        0.443766,
        0.5734097,
        -0.715543747,
        0.07213521,
        0.06970656,
        0.711847067,
        0.0847216845,
        -0.649401367,
        -0.329700351,
        0.09438741,
        -0.8636192,
        0.5262474
      ],
      [
        -0.269450545,
        -0.463651061,
        -0.852268934,
        -0.92471236,
        0.3980918,
        0.9611137,
        -0.7451545,
        0.597020864,
        -0.8852584,
        0.0299371481,
        -0.0427750349,
        -0.6061383,
        -0.4102357,
        0.5462315,
        0.121422291,
        0.5413717
      ],
      [
        -0.485359669,
        0.2778473,
        0.181047082,
        0.03233385,
        -0.874231339,
        -0.97456944,
        0.915105462,
        -0.8448836,
        -0.7445984,
        0.6784185,
        -0.3179385,
        -0.557598233,
        0.7002306,
        -0.0262580514,
        -0.8361728,
        0.811953664
      ]
    ],
    [
      [
        0.6328447,
        0.209206581,
        -0.529258251,
        -0.238457978,
        -0.4749837,
        0.316144943,
        -0.6533433,
        0.390714884,
        -0.5971037,
        -0.4871484
      ],
      [
        0.255527258,
        0.2477659,
        -0.3930573,
        0.217241645,
        -0.193791747,
        0.101489067,
        0.354846358,
        -0.985936344,
        0.7886697,
        0.81061995
      ],
      [
        0.228677988,
        -0.114669383,
        0.6698116,
        0.944824,
        0.308050752,
        0.980051041,
        0.7324524,
        0.406216383,
        0.638022542,
        -0.6241416
      ],
      [
        -0.9349119,
        -0.107432485,
        0.156989336,
        -0.5175782,
        -0.5126257,
        0.1345694,
        0.790123343,
        -0.190052211,
        -0.530094743,
        -0.0004415512
      ],
      [
        0.07448387,
        -0.470272481,
        0.62739253,
        -0.8315114,
        -0.9345472,
        -0.775676847,
        0.495408654,
        0.834013343,
        -0.5912834,
        0.490404248
      ],
      [
        0.267490029,
        0.9000249,
        -0.400986016,
        0.2471807,
        -0.637514532,
        0.205834508,
        -0.321150362,
        0.833874,
        -0.2960956,
        0.927746058
      ],
      [
        -0.5623358,
        -0.5591475,
        0.168237686,
        0.995373964,
        0.6405139,
        -0.487012327,
        0.957080364,
        0.779966831,
        0.3746456,
        -0.64790684
      ],
      [
        0.659079552,
        -0.159385264,
        0.2800001,
        -0.342000067,
        0.123649955,
        0.668221951,
        0.978965163,
        -0.9275511,
        -0.361198,
        -0.702070534
      ],
      [
        -0.098734796,
        0.0392533541,
        0.8599961,
        -0.767750859,
        0.00627923,
        -0.008846641,
        -0.30140835,
        0.6380116,
        0.398116,
        0.946097255
      ],
      [
        0.7754059,
        -0.07286519,
        0.996154547,
        -0.723246336,
        -0.232682347,
        -0.682377934,
        0.14825511,
        -0.9894884,
        -0.734715164,
        -0.592021048
      ],
      [
        0.6791328,
        -0.271748722,
        0.4682678,
        -0.3967986,
        -0.740244865,
        0.9866047,
        -0.279704154,
        0.2419486,
        -0.0136076212,
        0.8268709
      ],
      [
        0.6098386,
        -0.6710415,
        0.054376483,
        -0.831420243,
        -0.00304716825,
        -0.834291756,
        -0.9098323,
        -0.683084369,
        -0.4045756,
        -0.7412052
      ],
      [
        0.227554679,
        -0.384803057,
        -0.232260823,
        0.267154217,
        -0.4662432,
        -0.6229242,
        0.993639946,
        0.0590965748,
        0.234915972,
        -0.7075619
      ],
      [
        0.4665557,
        -0.352418363,
        -0.429470241,
        0.204322934,
        0.6393802,
        -0.5727171,
        -0.977745533,
        -0.338288367,
        -0.7259881,
        -0.921380341
      ],
      [
        0.09432447,
        -0.9256295,
        0.489578962,
        -0.8976153,
        -0.605068743,
        -0.5697646,
        -0.371334076,
        -0.450265229,
        -0.246157646,
        -0.266497254
      ],
      [
        0.651834,
        -0.788865566,
        -0.441966116,
        0.06739998,
        0.2481234,
        0.7068231,
        -0.9025403,
        0.589830041,
        -0.42958647,
        -0.5023998
      ]
    ],
    [
      [
        0.386909962,
        0.9128299
      ],
      [
        0.6752114,
        0.374112248
      ],
      [
        0.1854819,
        -0.954723537
      ],
      [
        0.0199126,
        0.3365574
      ],
      [
        -0.769979358,
        -0.06879854
      ],
      [
        -0.538645148,
        -0.6885243
      ],
      [
        -0.453302145,
        -0.0186692476
      ],
      [
        0.8485911,
        0.882913947
      ],
      [
        0.816714048,
        -0.216592491
      ],
      [
        0.234410167,
        0.6476636
      ]
    ]
  ],
  "biases": [
    [
      [
        -0.05763161,
        0.775887966,
        0.182528377,
        0.180342317,
        -0.873168945,
        -0.9658387,
        -0.266564965,
        -0.412091374,
        0.33989498,
        0.150348544,
        0.8372805,
        -0.8232055,
        -0.8290305,
        0.6678364,
        -0.828344345,
        -0.7584257
      ]
    ],
    [
      [
        0.402384251,
        0.394782275,
        -0.702384,
        -0.141570926,
        -0.7550354,
        -0.69691515,
        0.8312082,
        0.8981502,
        -0.8168299,
        -0.381080031
      ]
    ],
    [
      [
        0.794668436,
        -0.103935122
      ]
    ]
  ],
  "activationType": 1
}